methodNames[4536267][onCreate] = 7
methodNames[4536267][onOptionsItemSelected] = 6
methodNames[4536267][onPreviewStared] = 6
methodNames[4536267][onPreviewStopped] = 6
methodNames[4536267][onTouch] = 1
methodNames[4536267][ones] = 2
methodNames[4536267][open] = 1
methodNames[4536267][paint] = 1
methodNames[4536267][paramHelp] = 1
methodNames[4536267][paramHelp_0] = 1
methodNames[4536267][paramType] = 1
methodNames[4536267][paramType_0] = 1
methodNames[4536267][phaseCorrelate] = 2
methodNames[4536267][phaseCorrelate_0] = 1
methodNames[4536267][phaseCorrelate_1] = 1
methodNames[4536267][pointPolygonTest] = 1
methodNames[4536267][pointPolygonTest_0] = 1
methodNames[4536267][points] = 1
methodNames[4536267][preCornerDetect] = 2
methodNames[4536267][preCornerDetect_0] = 1
methodNames[4536267][preCornerDetect_1] = 1
methodNames[4536267][predict] = 15
methodNames[4536267][predict_0] = 8
methodNames[4536267][predict_1] = 7
methodNames[4536267][predict_prob] = 2
methodNames[4536267][predict_prob_0] = 1
methodNames[4536267][predict_prob_1] = 1
methodNames[4536267][processFrame] = 14
methodNames[4536267][prune] = 1
methodNames[4536267][prune_0] = 1
methodNames[4536267][push_back] = 1
methodNames[4536267][put] = 5
methodNames[4536267][pyrDown] = 3
methodNames[4536267][pyrDown_0] = 1
methodNames[4536267][pyrDown_1] = 1
methodNames[4536267][pyrDown_2] = 1
methodNames[4536267][pyrMeanShiftFiltering] = 2
methodNames[4536267][pyrMeanShiftFiltering_0] = 1
methodNames[4536267][pyrMeanShiftFiltering_1] = 1
methodNames[4536267][pyrUp] = 3
methodNames[4536267][pyrUp_0] = 1
methodNames[4536267][pyrUp_1] = 1
methodNames[4536267][pyrUp_2] = 1
methodNames[4536267][radiusMatch] = 8
methodNames[4536267][radiusMatch_0] = 2
methodNames[4536267][radiusMatch_1] = 2
methodNames[4536267][radiusMatch_2] = 2
methodNames[4536267][radiusMatch_3] = 2
methodNames[4536267][read] = 5
methodNames[4536267][read_0] = 4
methodNames[4536267][release] = 2
methodNames[4536267][remap] = 2
methodNames[4536267][remap_0] = 1
methodNames[4536267][remap_1] = 1
methodNames[4536267][reset] = 2
methodNames[4536267][reshape] = 2
methodNames[4536267][resize] = 2
methodNames[4536267][resize_0] = 1
methodNames[4536267][resize_1] = 1
methodNames[4536267][retrieve] = 2
methodNames[4536267][rotateEdge] = 1
methodNames[4536267][rotateEdge_0] = 1
methodNames[4536267][rowRange] = 2
methodNames[4536267][row] = 1
methodNames[4536267][rows] = 1
methodNames[4536267][run] = 11
methodNames[4536267][save] = 4
methodNames[4536267][save_0] = 2
methodNames[4536267][save_1] = 2
methodNames[4536267][searchMissingCluster] = 1
methodNames[4536267][segmentMotion] = 1
methodNames[4536267][segmentMotion_0] = 1
methodNames[4536267][sepFilter2D] = 3
methodNames[4536267][sepFilter2D_0] = 1
methodNames[4536267][sepFilter2D_1] = 1
methodNames[4536267][sepFilter2D_2] = 1
methodNames[4536267][setBlueMarksValues] = 1
methodNames[4536267][setBool] = 1
methodNames[4536267][setBool_0] = 1
methodNames[4536267][setDistanceToStaticCluster] = 1
methodNames[4536267][setDouble] = 1
methodNames[4536267][setDouble_0] = 1
methodNames[4536267][setInitalStepWidth] = 2
methodNames[4536267][setInt] = 1
methodNames[4536267][setInt_0] = 1
methodNames[4536267][setMatVector] = 1
methodNames[4536267][setMatVector_0] = 1
methodNames[4536267][setMat] = 1
methodNames[4536267][setMat_0] = 1
methodNames[4536267][setPreview] = 3
methodNames[4536267][setSVMDetector] = 1
methodNames[4536267][setSVMDetector_0] = 1
methodNames[4536267][setString] = 1
methodNames[4536267][setString_0] = 1
methodNames[4536267][setTo] = 4
methodNames[4536267][setViewMode] = 3
methodNames[4536267][set] = 9
methodNames[4536267][set_C] = 1
methodNames[4536267][set_C_0] = 1
methodNames[4536267][set_P1] = 1
methodNames[4536267][set_P1_0] = 1
methodNames[4536267][set_P2] = 1
methodNames[4536267][set_P2_0] = 1
methodNames[4536267][set_SADWindowSize] = 1
methodNames[4536267][set_SADWindowSize_0] = 1
methodNames[4536267][set_boost_type] = 1
methodNames[4536267][set_boost_type_0] = 1
methodNames[4536267][set_bp_dw_scale] = 1
methodNames[4536267][set_bp_dw_scale_0] = 1
methodNames[4536267][set_bp_moment_scale] = 1
methodNames[4536267][set_bp_moment_scale_0] = 1
methodNames[4536267][set_calc_var_importance] = 1
methodNames[4536267][set_calc_var_importance_0] = 1
methodNames[4536267][set_coef0] = 1
methodNames[4536267][set_coef0_0] = 1
methodNames[4536267][set_degree] = 1
methodNames[4536267][set_degree_0] = 1
methodNames[4536267][set_disp12MaxDiff] = 1
methodNames[4536267][set_disp12MaxDiff_0] = 1
methodNames[4536267][set_fullDP] = 1
methodNames[4536267][set_fullDP_0] = 1
methodNames[4536267][set_gamma] = 1
methodNames[4536267][set_gamma_0] = 1
methodNames[4536267][set_kernel_type] = 1
methodNames[4536267][set_kernel_type_0] = 1
methodNames[4536267][set_loss_function_type] = 1
methodNames[4536267][set_loss_function_type_0] = 1
methodNames[4536267][set_m00] = 1
methodNames[4536267][set_m00_0] = 1
methodNames[4536267][set_m01] = 1
methodNames[4536267][set_m01_0] = 1
methodNames[4536267][set_m02] = 1
methodNames[4536267][set_m02_0] = 1
methodNames[4536267][set_m03] = 1
methodNames[4536267][set_m03_0] = 1
methodNames[4536267][set_m10] = 1
methodNames[4536267][set_m10_0] = 1
methodNames[4536267][set_m11] = 1
methodNames[4536267][set_m11_0] = 1
methodNames[4536267][set_m12] = 1
methodNames[4536267][set_m12_0] = 1
methodNames[4536267][set_m20] = 1
methodNames[4536267][set_m20_0] = 1
methodNames[4536267][set_m21] = 1
methodNames[4536267][set_m21_0] = 1
methodNames[4536267][set_m30] = 1
methodNames[4536267][set_m30_0] = 1
methodNames[4536267][set_max_val] = 1
methodNames[4536267][set_max_val_0] = 1
methodNames[4536267][set_minDisparity] = 1
methodNames[4536267][set_minDisparity_0] = 1
methodNames[4536267][set_min_val] = 1
methodNames[4536267][set_min_val_0] = 1
methodNames[4536267][set_mu02] = 1
methodNames[4536267][set_mu02_0] = 1
methodNames[4536267][set_mu03] = 1
methodNames[4536267][set_mu03_0] = 1
methodNames[4536267][set_mu11] = 1
methodNames[4536267][set_mu11_0] = 1
methodNames[4536267][set_mu12] = 1
methodNames[4536267][set_mu12_0] = 1
methodNames[4536267][set_mu20] = 1
methodNames[4536267][set_mu20_0] = 1
methodNames[4536267][set_mu21] = 1
methodNames[4536267][set_mu21_0] = 1
methodNames[4536267][set_mu30] = 1
methodNames[4536267][set_mu30_0] = 1
methodNames[4536267][set_nactive_vars] = 1
methodNames[4536267][set_nactive_vars_0] = 1
methodNames[4536267][set_nu02] = 1
methodNames[4536267][set_nu02_0] = 1
methodNames[4536267][set_nu03] = 1
methodNames[4536267][set_nu03_0] = 1
methodNames[4536267][set_nu11] = 1
methodNames[4536267][set_nu11_0] = 1
methodNames[4536267][set_nu12] = 1
methodNames[4536267][set_nu12_0] = 1
methodNames[4536267][set_nu20] = 1
methodNames[4536267][set_nu20_0] = 1
methodNames[4536267][set_nu21] = 1
methodNames[4536267][set_nu21_0] = 1
methodNames[4536267][set_nu30] = 1
methodNames[4536267][set_nu30_0] = 1
methodNames[4536267][set_nu] = 1
methodNames[4536267][set_nu_0] = 1
methodNames[4536267][set_numberOfDisparities] = 1
methodNames[4536267][set_numberOfDisparities_0] = 1
methodNames[4536267][set_p] = 1
methodNames[4536267][set_p_0] = 1
methodNames[4536267][set_preFilterCap] = 1
methodNames[4536267][set_preFilterCap_0] = 1
methodNames[4536267][set_rp_dw0] = 1
methodNames[4536267][set_rp_dw0_0] = 1
methodNames[4536267][set_rp_dw_max] = 1
methodNames[4536267][set_rp_dw_max_0] = 1
methodNames[4536267][set_rp_dw_min] = 1
methodNames[4536267][set_rp_dw_min_0] = 1
methodNames[4536267][set_rp_dw_minus] = 1
methodNames[4536267][set_rp_dw_minus_0] = 1
methodNames[4536267][set_rp_dw_plus] = 1
methodNames[4536267][set_rp_dw_plus_0] = 1
methodNames[4536267][set_shrinkage] = 1
methodNames[4536267][set_shrinkage_0] = 1
methodNames[4536267][set_speckleRange] = 1
methodNames[4536267][set_speckleRange_0] = 1
methodNames[4536267][set_speckleWindowSize] = 1
methodNames[4536267][set_speckleWindowSize_0] = 1
methodNames[4536267][set_split_criteria] = 1
methodNames[4536267][set_split_criteria_0] = 1
methodNames[4536267][set_step] = 1
methodNames[4536267][set_step_0] = 1
methodNames[4536267][set_subsample_portion] = 1
methodNames[4536267][set_subsample_portion_0] = 1
methodNames[4536267][set_svm_type] = 1
methodNames[4536267][set_svm_type_0] = 1
methodNames[4536267][set_term_crit] = 3
methodNames[4536267][set_term_crit_0] = 3
methodNames[4536267][set_train_method] = 1
methodNames[4536267][set_train_method_0] = 1
methodNames[4536267][set_uniquenessRatio] = 1
methodNames[4536267][set_uniquenessRatio_0] = 1
methodNames[4536267][set_weak_count] = 2
methodNames[4536267][set_weak_count_0] = 2
methodNames[4536267][set_weight_trim_rate] = 1
methodNames[4536267][set_weight_trim_rate_0] = 1
methodNames[4536267][shift] = 1
methodNames[4536267][shuffle] = 1
methodNames[4536267][significance1] = 1
methodNames[4536267][size] = 3
methodNames[4536267][sortRegionsCalc] = 1
methodNames[4536267][sortlist] = 1
methodNames[4536267][startNewGame] = 1
methodNames[4536267][step1] = 2
methodNames[4536267][submat] = 3
methodNames[4536267][surfaceChanged] = 11
methodNames[4536267][surfaceCreated] = 7
methodNames[4536267][surfaceDestroyed] = 7
methodNames[4536267][symEdge] = 1
methodNames[4536267][symEdge_0] = 1
methodNames[4536267][t] = 1
methodNames[4536267][threshold] = 1
methodNames[4536267][threshold_0] = 1
methodNames[4536267][tl] = 1
methodNames[4536267][toArray] = 14
methodNames[4536267][toList] = 14
methodNames[4536267][toString] = 12
methodNames[4536267][tolggleTileNumbers] = 1
methodNames[4536267][total] = 1
methodNames[4536267][trainE] = 2
methodNames[4536267][trainE_0] = 1
methodNames[4536267][trainE_1] = 1
methodNames[4536267][trainM] = 2
methodNames[4536267][trainM_0] = 1
methodNames[4536267][trainM_1] = 1
methodNames[4536267][train] = 20
methodNames[4536267][train_0] = 11
methodNames[4536267][train_1] = 9
methodNames[4536267][train_auto] = 2
methodNames[4536267][train_auto_0] = 1
methodNames[4536267][train_auto_1] = 1
methodNames[4536267][typeToString] = 1
methodNames[4536267][type] = 1
methodNames[4536267][undistortPoints] = 2
methodNames[4536267][undistortPoints_0] = 1
methodNames[4536267][undistortPoints_1] = 1
methodNames[4536267][undistort] = 2
methodNames[4536267][undistort_0] = 1
methodNames[4536267][undistort_1] = 1
methodNames[4536267][updateMotionHistory] = 1
methodNames[4536267][updateMotionHistory_0] = 1
methodNames[4536267][vector_DMatch_to_Mat] = 1
methodNames[4536267][vector_KeyPoint_to_Mat] = 1
methodNames[4536267][vector_Mat_to_Mat] = 1
methodNames[4536267][vector_Point2d_to_Mat] = 1
methodNames[4536267][vector_Point2f_to_Mat] = 1
methodNames[4536267][vector_Point3_to_Mat] = 1
methodNames[4536267][vector_Point3d_to_Mat] = 1
methodNames[4536267][vector_Point3f_to_Mat] = 1
methodNames[4536267][vector_Point3i_to_Mat] = 1
methodNames[4536267][vector_Point_to_Mat] = 2
methodNames[4536267][vector_Rect_to_Mat] = 1
methodNames[4536267][vector_char_to_Mat] = 1
methodNames[4536267][vector_double_to_Mat] = 1
methodNames[4536267][vector_float_to_Mat] = 1
methodNames[4536267][vector_int_to_Mat] = 1
methodNames[4536267][vector_uchar_to_Mat] = 1
methodNames[4536267][vector_vector_DMatch_to_Mat] = 1
methodNames[4536267][vector_vector_KeyPoint_to_Mat] = 1
methodNames[4536267][vector_vector_Point2f_to_Mat] = 1
methodNames[4536267][vector_vector_Point3f_to_Mat] = 1
methodNames[4536267][vector_vector_Point_to_Mat] = 1
methodNames[4536267][vector_vector_char_to_Mat] = 1
methodNames[4536267][warpAffine] = 3
methodNames[4536267][warpAffine_0] = 1
methodNames[4536267][warpAffine_1] = 1
methodNames[4536267][warpAffine_2] = 1
methodNames[4536267][warpPerspective] = 3
methodNames[4536267][warpPerspective_0] = 1
methodNames[4536267][warpPerspective_1] = 1
methodNames[4536267][warpPerspective_2] = 1
methodNames[4536267][watershed] = 1
methodNames[4536267][watershed_0] = 1
methodNames[4536267][width] = 1
methodNames[4536267][write] = 4
methodNames[4536267][write_0] = 4
methodNames[4536267][zeros] = 2
methodNames[4536275][<clinit>] = 1
methodNames[4536275][<init>] = 7
methodNames[4536275][acceptTicket] = 3
methodNames[4536275][addComment] = 3
methodNames[4536275][closeTicket] = 3
methodNames[4536275][createInitResponse] = 2
methodNames[4536275][createInit] = 2
methodNames[4536275][createMessage] = 3
methodNames[4536275][createRemoveResponse] = 2
methodNames[4536275][createRemove] = 2
methodNames[4536275][createTicket] = 3
methodNames[4536275][createUser] = 3
methodNames[4536275][doGet] = 5
methodNames[4536275][doPost] = 5
methodNames[4536275][getAllMessages] = 3
methodNames[4536275][getAllProjects] = 3
methodNames[4536275][getAllRoles] = 3
methodNames[4536275][getAllTickets] = 10
methodNames[4536275][getAllUsers] = 3
methodNames[4536275][getCommentId] = 1
methodNames[4536275][getComment] = 1
methodNames[4536275][getCommentbody] = 1
methodNames[4536275][getDate] = 1
methodNames[4536275][getDesc] = 1
methodNames[4536275][getEmail] = 1
methodNames[4536275][getMe] = 5
methodNames[4536275][getMessageId] = 1
methodNames[4536275][getMessage] = 1
methodNames[4536275][getMyTickets] = 3
methodNames[4536275][getOwnedTickets] = 1
methodNames[4536275][getOwner] = 1
methodNames[4536275][getPassword] = 1
methodNames[4536275][getPoint] = 1
methodNames[4536275][getProggerTickets] = 3
methodNames[4536275][getProggers] = 5
methodNames[4536275][getProjectId] = 1
methodNames[4536275][getProjectTickets] = 1
methodNames[4536275][getProject] = 6
methodNames[4536275][getProjectname] = 1
methodNames[4536275][getRole] = 1
methodNames[4536275][getRoles] = 1
methodNames[4536275][getStatus] = 1
methodNames[4536275][getTicketComments] = 1
methodNames[4536275][getTicketId] = 1
methodNames[4536275][getTicket] = 4
methodNames[4536275][getTitle] = 1
methodNames[4536275][getUserId] = 1
methodNames[4536275][getUserServicesWSPort] = 1
methodNames[4536275][getUsername] = 2
methodNames[4536275][getUsers] = 1
methodNames[4536275][getWorker] = 1
methodNames[4536275][getWorkingTickets] = 1
methodNames[4536275][go] = 5
methodNames[4536275][init] = 2
methodNames[4536275][remove] = 2
methodNames[4536275][reopenTicket] = 3
methodNames[4536275][resolveTicket] = 3
methodNames[4536275][setCommentId] = 1
methodNames[4536275][setComment] = 1
methodNames[4536275][setCommentbody] = 1
methodNames[4536275][setDate] = 1
methodNames[4536275][setDesc] = 1
methodNames[4536275][setEmail] = 1
methodNames[4536275][setMessageId] = 1
methodNames[4536275][setMessage] = 1
methodNames[4536275][setOwnedTickets] = 1
methodNames[4536275][setOwner] = 1
methodNames[4536275][setPassword] = 1
methodNames[4536275][setPoint] = 1
methodNames[4536275][setProjectId] = 1
methodNames[4536275][setProjectTickets] = 1
methodNames[4536275][setProject] = 1
methodNames[4536275][setProjectname] = 1
methodNames[4536275][setRole] = 1
methodNames[4536275][setRoles] = 1
methodNames[4536275][setStatus] = 1
methodNames[4536275][setTicketComments] = 1
methodNames[4536275][setTicketId] = 1
methodNames[4536275][setTicket] = 1
methodNames[4536275][setTitle] = 1
methodNames[4536275][setUserId] = 1
methodNames[4536275][setUsername] = 2
methodNames[4536275][setUsers] = 1
methodNames[4536275][setWorker] = 1
methodNames[4536275][setWorkingTickets] = 1
methodNames[4536275][unacceptTicket] = 3
methodNames[4536304][getBetterLocation] = 1
methodNames[4536304][onCreate] = 1
methodNames[4536304][onLocationChanged] = 1
methodNames[4536304][onProviderDisabled] = 1
methodNames[4536304][onProviderEnabled] = 1
methodNames[4536304][onResume] = 1
methodNames[4536304][onStart] = 1
methodNames[4536304][onStatusChanged] = 1
methodNames[4536304][onStop] = 1
methodNames[4536304][requestUpdatesFromProvider] = 1
methodNames[4536304][setup] = 1
methodNames[4536304][updateUILocation] = 1
methodNames[4536347][<init>] = 1
methodNames[4536347][getPositionA] = 1
methodNames[4536347][getPositionB] = 1
methodNames[4536347][main] = 1
methodNames[4536347][reset] = 1
methodNames[4536347][rotateATo] = 1
methodNames[4536347][rotateBTo] = 1
methodNames[4536347][rotateTo] = 1
methodNames[4536347][search] = 1
methodNames[4536400][<init>] = 6
methodNames[4536400][CreateInstance] = 2
methodNames[4536400][EditableToDouble] = 2
methodNames[4536400][SetUnits] = 2
methodNames[4536400][adaptUnits] = 2
methodNames[4536400][addCarbs] = 4
methodNames[4536400][addFat] = 4
methodNames[4536400][addFibre] = 4
methodNames[4536400][addProteins] = 4
methodNames[4536400][calculate] = 4
methodNames[4536400][getCount] = 2
methodNames[4536400][getId] = 1
methodNames[4536400][getItemId] = 1
methodNames[4536400][getItem] = 2
methodNames[4536400][getName] = 1
methodNames[4536400][getPageTitle] = 1
methodNames[4536400][getTitle] = 3
methodNames[4536400][getView] = 1
methodNames[4536400][init] = 2
methodNames[4536400][isValidFragment] = 1
methodNames[4536400][onBuildHeaders] = 1
methodNames[4536400][onConfigurationChanged] = 1
methodNames[4536400][onCreateOptionsMenu] = 2
methodNames[4536400][onCreateView] = 2
methodNames[4536400][onCreate] = 5
methodNames[4536400][onDestroy] = 2
methodNames[4536400][onOptionsItemSelected] = 3
methodNames[4536400][onPostCreate] = 1
methodNames[4536400][onSharedPreferenceChanged] = 2
methodNames[4536400][onStart] = 2
methodNames[4536400][onStop] = 2
methodNames[4536400][setId] = 1
methodNames[4536400][setName] = 1
methodNames[4536400][setTitle] = 1
methodNames[4536400][setUnit] = 2
methodNames[453642][copyFeedUrlFile] = 1
methodNames[453642][drawBuildLife] = 1
methodNames[453642][drawChangeCount] = 1
methodNames[453642][drawDuration] = 1
methodNames[453642][drawHelp] = 1
methodNames[453642][drawMonitorState] = 1
methodNames[453642][drawProject] = 1
methodNames[453642][drawStamp] = 1
methodNames[453642][drawStatusBackground] = 1
methodNames[453642][drawWorkflow] = 1
methodNames[453642][draw] = 1
methodNames[453642][getStatusColor] = 1
methodNames[453642][keyPressed] = 1
methodNames[453642][loadFeedUrl] = 1
methodNames[453642][loadFeed] = 1
methodNames[453642][main] = 1
methodNames[453642][selectNextWorkflow] = 1
methodNames[453642][selectPreviousWorkflow] = 1
methodNames[453642][selectUrlFile] = 1
methodNames[453642][setup] = 1
methodNames[4536462][<init>] = 1
methodNames[4536462][calculate] = 1
methodNames[4536462][onCheckedChanged] = 1
methodNames[4536462][onClick] = 1
methodNames[4536462][onCreate] = 1
methodNames[4536462][setFare] = 1
methodNames[4536462][setMeter] = 1
methodNames[4536568][greeting] = 1
methodNames[4536568][main] = 1
methodNames[4536629][<clinit>] = 4
methodNames[4536629][<init>] = 74
methodNames[4536629][addAll] = 1
methodNames[4536629][addAttribute] = 2
methodNames[4536629][addGroup] = 2
methodNames[4536629][addResponseInfo] = 1
methodNames[4536629][appendQueryMark] = 1
methodNames[4536629][appendStateParameter] = 1
methodNames[4536629][arbitraryScopes] = 1
methodNames[4536629][assertionConsumerUri] = 2
methodNames[4536629][assertionConsumer] = 2
methodNames[4536629][authCode] = 2
methodNames[4536629][authenticate] = 11
methodNames[4536629][authenticator] = 2
methodNames[4536629][authorizationBasic] = 3
methodNames[4536629][authorizationBearer] = 2
methodNames[4536629][authorizationCodeToken] = 1
methodNames[4536629][authorizeCallbackGet] = 1
methodNames[4536629][authorizeCallback] = 1
methodNames[4536629][authorize] = 1
methodNames[4536629][baseUrlWith] = 3
methodNames[4536629][baseUrl] = 3
methodNames[4536629][beforeClass] = 2
methodNames[4536629][before] = 10
methodNames[4536629][buildCache] = 4
methodNames[4536629][buildClient] = 1
methodNames[4536629][buildErrorResponse] = 3
methodNames[4536629][buildResourceServer] = 2
methodNames[4536629][buildViolationErrorResponse] = 2
methodNames[4536629][cacheAccessTokens] = 4
methodNames[4536629][canCommence] = 7
methodNames[4536629][cascade] = 2
methodNames[4536629][certificateStore] = 1
methodNames[4536629][cleanUpCache] = 1
methodNames[4536629][cleaner] = 1
methodNames[4536629][cleanupExpiredAccessTokens] = 1
methodNames[4536629][clientController] = 1
methodNames[4536629][client] = 2
methodNames[4536629][configureDefaultServletHandling] = 1
methodNames[4536629][consentCallback] = 1
methodNames[4536629][consent] = 2
methodNames[4536629][containsClient] = 1
methodNames[4536629][convertToPrincipal] = 1
methodNames[4536629][countByUniqueResourceOwnerIdAndClientId] = 1
methodNames[4536629][createAccessToken] = 2
methodNames[4536629][createAuthRequest] = 1
methodNames[4536629][createClient] = 6
methodNames[4536629][createDefaultSettings] = 1
methodNames[4536629][createObjectMapper] = 3
methodNames[4536629][credentialsValid] = 1
methodNames[4536629][dataSource] = 4
methodNames[4536629][decodePrincipal] = 3
methodNames[4536629][delete] = 11
methodNames[4536629][deserialize] = 2
methodNames[4536629][destroy] = 13
methodNames[4536629][determineRedirectUri] = 3
methodNames[4536629][determineScopes] = 2
methodNames[4536629][determineUrlValidImplicitGrant] = 1
methodNames[4536629][doCallFilter] = 9
methodNames[4536629][doFilter] = 13
methodNames[4536629][doProcess] = 1
methodNames[4536629][encodePrincipal] = 3
methodNames[4536629][entityId] = 2
methodNames[4536629][entityManagerFactory] = 2
methodNames[4536629][entityManager] = 2
methodNames[4536629][equals] = 3
methodNames[4536629][exceptionTranslator] = 2
methodNames[4536629][extractAuthorizationRequest] = 1
methodNames[4536629][extractSamlResponse] = 1
methodNames[4536629][findAll] = 1
methodNames[4536629][findAuthorizationRequest] = 3
methodNames[4536629][findByAuthState] = 2
methodNames[4536629][findByAuthorizationCode] = 2
methodNames[4536629][findByClientId] = 2
methodNames[4536629][findByIdAndOwner] = 2
methodNames[4536629][findByIdAndResourceOwnerId] = 1
methodNames[4536629][findByIdAndResourceServer] = 2
methodNames[4536629][findByKey] = 2
methodNames[4536629][findByMaxExpires] = 1
methodNames[4536629][findByOwner] = 2
methodNames[4536629][findByRefreshToken] = 2
methodNames[4536629][findByResourceOwnerIdAndClient] = 1
methodNames[4536629][findByResourceOwnerId] = 1
methodNames[4536629][findByResourceServer] = 2
methodNames[4536629][findByTokenAndClient] = 1
methodNames[4536629][findByToken] = 2
methodNames[4536629][flyway] = 2
methodNames[4536629][fromMultiValuedFormParameters] = 2
methodNames[4536629][generateClientId] = 2
methodNames[4536629][generateEncodedPrincipal] = 2
methodNames[4536629][generateKey] = 2
methodNames[4536629][generateRandom] = 2
methodNames[4536629][generateSecret] = 4
methodNames[4536629][getAccessControlAllowedMethods] = 1
methodNames[4536629][getAccessControlMaxAge] = 1
methodNames[4536629][getAccessTokenEndPoint] = 1
methodNames[4536629][getAccessToken] = 8
methodNames[4536629][getAllAccessTokens] = 1
methodNames[4536629][getAllCourses] = 2
methodNames[4536629][getAllResourceServers] = 1
methodNames[4536629][getAllStudents] = 2
methodNames[4536629][getAllWhenNoneFound] = 2
methodNames[4536629][getAll] = 8
methodNames[4536629][getAllowedHeaders] = 1
methodNames[4536629][getAttribute] = 1
methodNames[4536629][getAttributes] = 5
methodNames[4536629][getAudience] = 1
methodNames[4536629][getAuthStateValue] = 4
methodNames[4536629][getAuthState] = 2
methodNames[4536629][getAuth] = 2
methodNames[4536629][getAuthenticatedPrincipal] = 3
methodNames[4536629][getAuthenticatingAuthority] = 1
methodNames[4536629][getAuthorities] = 1
methodNames[4536629][getAuthority] = 1
methodNames[4536629][getAuthorizationCodeRequestHandler] = 2
methodNames[4536629][getAuthorizationCodeValue] = 1
methodNames[4536629][getAuthorizationCode] = 2
methodNames[4536629][getAuthorizationHeaderValue] = 1
methodNames[4536629][getAuthorizationRequest] = 2
methodNames[4536629][getAuthorizationResponseState] = 1
methodNames[4536629][getAuthorizationServerUrl] = 2
methodNames[4536629][getAuthorizationURLComplete] = 1
methodNames[4536629][getAuthorizationURL] = 1
methodNames[4536629][getAuthorizationUrl] = 1
methodNames[4536629][getBaseUrl] = 1
methodNames[4536629][getById] = 7
methodNames[4536629][getCache] = 3
methodNames[4536629][getCallable] = 3
methodNames[4536629][getClientByResourceServer] = 1
methodNames[4536629][getClientCredentials] = 1
methodNames[4536629][getClientId] = 8
methodNames[4536629][getClientSecret] = 2
methodNames[4536629][getClient] = 8
methodNames[4536629][getClients] = 3
methodNames[4536629][getCode] = 2
methodNames[4536629][getConfiguredBean] = 2
methodNames[4536629][getContactEmail] = 5
methodNames[4536629][getContactName] = 5
methodNames[4536629][getContext] = 2
methodNames[4536629][getCourseById] = 2
methodNames[4536629][getCourses] = 2
methodNames[4536629][getCreationDate] = 1
methodNames[4536629][getCsrfValue] = 1
methodNames[4536629][getDescription] = 8
methodNames[4536629][getDisplayName] = 3
methodNames[4536629][getEmail] = 2
methodNames[4536629][getEncodedPrincipal] = 3
methodNames[4536629][getEntityManager] = 1
methodNames[4536629][getErrorDescription] = 1
methodNames[4536629][getError] = 2
methodNames[4536629][getExpireDuration] = 3
methodNames[4536629][getExpiresIn] = 4
methodNames[4536629][getExpires] = 1
methodNames[4536629][getForwardUri] = 1
methodNames[4536629][getGrantType] = 2
methodNames[4536629][getGrantedScopes] = 1
methodNames[4536629][getGroup20] = 1
methodNames[4536629][getGroupMembers] = 1
methodNames[4536629][getGroups20] = 1
methodNames[4536629][getGroups] = 3
methodNames[4536629][getHeadersCopy] = 1
methodNames[4536629][getId] = 7
methodNames[4536629][getIdentityProvider] = 1
methodNames[4536629][getIdpUrl] = 1
methodNames[4536629][getKey] = 3
methodNames[4536629][getMapper] = 2
methodNames[4536629][getModificationDate] = 1
methodNames[4536629][getName] = 18
methodNames[4536629][getNonExisting] = 1
methodNames[4536629][getOauthClientServer] = 2
methodNames[4536629][getOauthKey] = 1
methodNames[4536629][getOauthSecret] = 1
methodNames[4536629][getObjectMapper] = 2
methodNames[4536629][getOwner] = 2
methodNames[4536629][getParamsFromUri] = 1
methodNames[4536629][getPassword] = 5
methodNames[4536629][getPerson] = 1
methodNames[4536629][getPostBody] = 2
methodNames[4536629][getPrincipal] = 6
methodNames[4536629][getRedirectUri] = 4
methodNames[4536629][getRedirectUris] = 3
methodNames[4536629][getRefreshToken] = 5
methodNames[4536629][getRepository] = 2
methodNames[4536629][getRequestURL] = 1
methodNames[4536629][getRequestedScopes] = 1
methodNames[4536629][getResourceOwnerId] = 1
methodNames[4536629][getResourceServer] = 7
methodNames[4536629][getResourceServers] = 1
methodNames[4536629][getResponseType] = 2
methodNames[4536629][getReturnUri] = 3
methodNames[4536629][getRoles] = 5
methodNames[4536629][getSAMLRelayState] = 1
methodNames[4536629][getScope] = 4
methodNames[4536629][getScopes] = 8
methodNames[4536629][getSecret] = 7
methodNames[4536629][getState] = 2
methodNames[4536629][getStep] = 1
methodNames[4536629][getStudentById] = 2
methodNames[4536629][getStudents] = 2
methodNames[4536629][getThumbNailUrl] = 5
methodNames[4536629][getTokenCount] = 1
methodNames[4536629][getTokenResponseBlocking] = 2
methodNames[4536629][getTokenType] = 2
methodNames[4536629][getTokenValue] = 1
methodNames[4536629][getToken] = 3
methodNames[4536629][getUserConsentDeniedUrl] = 1
methodNames[4536629][getUserConsentUrl] = 2
methodNames[4536629][getUserId] = 4
methodNames[4536629][getUserPassCredentials] = 1
methodNames[4536629][getUsername] = 5
methodNames[4536629][getValueFromAttributeStatements] = 2
methodNames[4536629][getVerifyTokenResponse] = 4
methodNames[4536629][getVerifyToken] = 2
methodNames[4536629][getViolations] = 1
methodNames[4536629][getWebDriver] = 2
methodNames[4536629][get] = 3
methodNames[4536629][handleInitialRequest] = 1
methodNames[4536629][handleUserConsent] = 6
methodNames[4536629][handle] = 3
methodNames[4536629][handledCorsPreflightRequest] = 1
methodNames[4536629][happy] = 3
methodNames[4536629][hasClient] = 1
methodNames[4536629][hashCode] = 3
methodNames[4536629][implicitGrantNoRedirectGivenShouldUseDefault] = 1
methodNames[4536629][implicitGrant] = 2
methodNames[4536629][initDriver] = 2
methodNames[4536629][initFirefoxDriver] = 2
methodNames[4536629][initFlyway] = 2
methodNames[4536629][initHtmlUnitDriver] = 2
methodNames[4536629][init] = 18
methodNames[4536629][initialRequest] = 2
methodNames[4536629][initializeOnce] = 2
methodNames[4536629][initialize] = 5
methodNames[4536629][invalidParams] = 2
methodNames[4536629][invariant] = 2
methodNames[4536629][isAccessTokenGranted] = 1
methodNames[4536629][isAccountNonExpired] = 1
methodNames[4536629][isAccountNonLocked] = 1
methodNames[4536629][isAdminPrincipal] = 2
methodNames[4536629][isAllowedClientCredentials] = 1
methodNames[4536629][isAllowedImplicitGrant] = 1
methodNames[4536629][isCredentialsNonExpired] = 1
methodNames[4536629][isEnabled] = 1
methodNames[4536629][isExactMatch] = 3
methodNames[4536629][isExpired] = 1
methodNames[4536629][isGroupAware] = 2
methodNames[4536629][isImplicitGrant] = 1
methodNames[4536629][isIncludePrincipal] = 1
methodNames[4536629][isJsonTypeInfoIncluded] = 1
methodNames[4536629][isNotAllowedImplicitGrant] = 1
methodNames[4536629][isRelevantCause] = 2
methodNames[4536629][isSAMLResponse] = 1
methodNames[4536629][isSkipConsent] = 3
methodNames[4536629][isUseRefreshTokens] = 3
methodNames[4536629][isUserConsentPost] = 2
methodNames[4536629][isValidResponse] = 1
methodNames[4536629][isValidUrl] = 1
methodNames[4536629][isValid] = 7
methodNames[4536629][issueInstantRule] = 2
methodNames[4536629][keyStoreCredentialResolver] = 2
methodNames[4536629][keyStore] = 1
methodNames[4536629][login] = 3
methodNames[4536629][main] = 2
methodNames[4536629][marshallToJsonShouldHideSomeMembers] = 1
methodNames[4536629][marshallToJson] = 1
methodNames[4536629][messageReplayRule] = 2
methodNames[4536629][noErrors] = 1
methodNames[4536629][noValidAuthHeader] = 4
methodNames[4536629][nullSafeGetFormParameter] = 2
methodNames[4536629][oAuth2Validator] = 2
methodNames[4536629][oauth2AuthenticationFilter] = 2
methodNames[4536629][oauth2UserConsentFilter] = 2
methodNames[4536629][oauthCallback] = 1
methodNames[4536629][partOfRedirectUrimatching] = 1
methodNames[4536629][performImplicitGrant] = 1
methodNames[4536629][post] = 9
methodNames[4536629][prepareRestClientAndCreateResourceServer] = 1
methodNames[4536629][principal] = 2
methodNames[4536629][processForm] = 4
methodNames[4536629][processInitial] = 4
methodNames[4536629][processScopes] = 1
methodNames[4536629][provisionUser] = 2
methodNames[4536629][pruneClientScopes] = 2
methodNames[4536629][pruneScopes] = 2
methodNames[4536629][putInvalidScopes] = 1
methodNames[4536629][putInvalid] = 2
methodNames[4536629][putSomeClient] = 1
methodNames[4536629][putSomeResourceServer] = 2
methodNames[4536629][put] = 9
methodNames[4536629][redirectUris] = 1
methodNames[4536629][redirect] = 2
methodNames[4536629][refreshCode] = 2
methodNames[4536629][refreshTokenToken] = 1
methodNames[4536629][replayCache] = 2
methodNames[4536629][reset] = 1
methodNames[4536629][response] = 1
methodNames[4536629][restartBrowserSession] = 1
methodNames[4536629][revokeAccessToken] = 1
methodNames[4536629][samlMessageDecoder] = 2
methodNames[4536629][samlMessageHandler] = 2
methodNames[4536629][sanitizeClientName] = 2
methodNames[4536629][sanitize] = 2
methodNames[4536629][save] = 2
methodNames[4536629][scopesShouldBeSubsetOfResourceServerScopes] = 2
methodNames[4536629][securityPolicyResolver] = 2
methodNames[4536629][securityPolicy] = 2
methodNames[4536629][sendAuthnRequest] = 1
methodNames[4536629][sendAuthorizationCodeResponse] = 1
methodNames[4536629][sendErrorResponse] = 2
methodNames[4536629][sendError] = 5
methodNames[4536629][sendImplicitGrantResponse] = 1
methodNames[4536629][serialize] = 2
methodNames[4536629][serverError] = 1
methodNames[4536629][service] = 1
methodNames[4536629][setAccessTokenEndPoint] = 1
methodNames[4536629][setAccessTokenRepository] = 3
methodNames[4536629][setAccessToken] = 3
methodNames[4536629][setAdminPrincipal] = 1
methodNames[4536629][setAllowCorsRequests] = 1
methodNames[4536629][setAllowedClientCredentials] = 1
methodNames[4536629][setAllowedImplicitGrant] = 1
methodNames[4536629][setAttributes] = 5
methodNames[4536629][setAudience] = 1
methodNames[4536629][setAuthStateValue] = 3
methodNames[4536629][setAuthState] = 2
methodNames[4536629][setAuth] = 2
methodNames[4536629][setAuthenticator] = 1
methodNames[4536629][setAuthorizationCode] = 2
methodNames[4536629][setAuthorizationRequestRepository] = 4
methodNames[4536629][setAuthorizationServerUrl] = 6
methodNames[4536629][setAuthorizationURLComplete] = 1
methodNames[4536629][setAuthorizationURL] = 1
methodNames[4536629][setCacheEnabled] = 1
methodNames[4536629][setCallbackUrl] = 1
methodNames[4536629][setClientId] = 7
methodNames[4536629][setClientSecret] = 2
methodNames[4536629][setClient] = 4
methodNames[4536629][setClients] = 3
methodNames[4536629][setCode] = 2
methodNames[4536629][setConsumerKey] = 1
methodNames[4536629][setConsumerSecret] = 1
methodNames[4536629][setContactEmail] = 5
methodNames[4536629][setContactName] = 5
methodNames[4536629][setCourses] = 2
methodNames[4536629][setDescription] = 8
methodNames[4536629][setEmail] = 2
methodNames[4536629][setEncodedPrincipal] = 1
methodNames[4536629][setEndpointBaseUrl] = 1
methodNames[4536629][setEnvironment] = 1
methodNames[4536629][setErrorDescription] = 1
methodNames[4536629][setError] = 2
methodNames[4536629][setExpireDuration] = 3
methodNames[4536629][setExpiresIn] = 3
methodNames[4536629][setExpires] = 1
methodNames[4536629][setGrantType] = 2
methodNames[4536629][setGrantedScopes] = 2
methodNames[4536629][setGroups] = 2
methodNames[4536629][setId] = 7
methodNames[4536629][setImplicitGrant] = 1
methodNames[4536629][setIncludePrincipal] = 1
methodNames[4536629][setKey] = 3
methodNames[4536629][setName] = 17
methodNames[4536629][setNotAllowedImplicitGrant] = 1
methodNames[4536629][setOAuth2Validator] = 1
methodNames[4536629][setOauthKey] = 1
methodNames[4536629][setOauthSecret] = 1
methodNames[4536629][setOwner] = 2
methodNames[4536629][setPrincipal] = 6
methodNames[4536629][setRedirectUri] = 4
methodNames[4536629][setRedirectUris] = 3
methodNames[4536629][setRefreshToken] = 5
methodNames[4536629][setRequestURL] = 1
methodNames[4536629][setRequestedScopes] = 1
methodNames[4536629][setResourceServerKey] = 4
methodNames[4536629][setResourceServerRepository] = 2
methodNames[4536629][setResourceServerSecret] = 4
methodNames[4536629][setResourceServer] = 3
methodNames[4536629][setResourceServers] = 1
methodNames[4536629][setResponseType] = 2
methodNames[4536629][setRoles] = 3
methodNames[4536629][setScope] = 4
methodNames[4536629][setScopes] = 10
methodNames[4536629][setSecret] = 7
methodNames[4536629][setSkipConsent] = 3
methodNames[4536629][setState] = 2
methodNames[4536629][setStep] = 1
methodNames[4536629][setStudents] = 2
methodNames[4536629][setThumbNailUrl] = 5
methodNames[4536629][setTokenCount] = 1
methodNames[4536629][setTokenType] = 2
methodNames[4536629][setToken] = 1
methodNames[4536629][setTypeInformationIsIncluded] = 1
methodNames[4536629][setUp] = 6
methodNames[4536629][setUseRefreshTokens] = 3
methodNames[4536629][setUserConsentHandler] = 2
methodNames[4536629][setUuidAttribute] = 1
methodNames[4536629][setVersion] = 1
methodNames[4536629][setoAuth2Validator] = 1
methodNames[4536629][setup] = 3
methodNames[4536629][signatureBuilder] = 2
methodNames[4536629][startAuthorizationCallbackServer] = 2
methodNames[4536629][start] = 1
methodNames[4536629][stateParam] = 1
methodNames[4536629][stats] = 3
methodNames[4536629][step1] = 1
methodNames[4536629][step2] = 1
methodNames[4536629][step3] = 1
methodNames[4536629][storePrincipal] = 2
methodNames[4536629][storeVerifyToken] = 2
methodNames[4536629][testCallIndexPage] = 2
methodNames[4536629][testClientCredentialsTokenRequest] = 1
methodNames[4536629][testClientNotPermittedImplicitGrant] = 2
methodNames[4536629][testCorsHeadersPreflight] = 1
methodNames[4536629][testCountByResourceOwnerid] = 1
methodNames[4536629][testDoFilterHappyFlow] = 3
methodNames[4536629][testDoFilterWrongAccessToken] = 3
methodNames[4536629][testEncodePrincipal] = 1
methodNames[4536629][testGetAuthorizationHeaderValue] = 1
methodNames[4536629][testGetVerifyToken] = 1
methodNames[4536629][testHappyFlow] = 2
methodNames[4536629][testInvalidRedirectUriFragment] = 2
methodNames[4536629][testPrincipalDisplayName] = 1
methodNames[4536629][testPrincipal] = 2
methodNames[4536629][testRedirectUriWithQueryParameter] = 2
methodNames[4536629][testSerialization] = 3
methodNames[4536629][testStoreVerifyTokenWithExpires] = 1
methodNames[4536629][testStoreVerifyTokenWithMaxSize] = 1
methodNames[4536629][testValidateClientId] = 2
methodNames[4536629][testValidateImplicitGrant] = 2
methodNames[4536629][testValidateRedirectUri] = 2
methodNames[4536629][testValidateResponseType] = 2
methodNames[4536629][testValidateScope] = 2
methodNames[4536629][testValidateValidRedirectUri] = 2
methodNames[4536629][testValidation] = 1
methodNames[4536629][test] = 6
methodNames[4536629][toString] = 12
methodNames[4536629][tokenExpired] = 2
methodNames[4536629][token] = 1
methodNames[4536629][transactionManager] = 2
methodNames[4536629][translate] = 4
methodNames[4536629][unauthorized] = 2
methodNames[4536629][uniqueClientId] = 2
methodNames[4536629][updateTimeStamps] = 1
methodNames[4536629][userConsentHandler] = 2
methodNames[4536629][validateAccessTokenRequest] = 2
methodNames[4536629][validateAttributes] = 2
methodNames[4536629][validateAuthorizationRequest] = 2
methodNames[4536629][validateClient] = 3
methodNames[4536629][validateEmail] = 1
methodNames[4536629][validateGrantType] = 2
methodNames[4536629][validateLessThanMinimal] = 1
methodNames[4536629][validateMinimalistic] = 1
methodNames[4536629][validateResponseType] = 2
methodNames[4536629][validateScope] = 2
methodNames[4536629][validateScopes] = 1
methodNames[4536629][validate] = 19
methodNames[4536629][validatorSuite] = 2
methodNames[4536629][validator] = 1
methodNames[4536629][velocityEngine] = 2
methodNames[4536629][verifyToken] = 2
methodNames[4536629][viewResolver] = 1
methodNames[4536629][violation] = 1
methodNames[4536629][wire] = 2
methodNames[4536629][withInvalidAuthorizationHeader] = 3
methodNames[4536629][withNoAuthorizationHeader] = 3
methodNames[4536629][withNoParams] = 3
methodNames[4536629][withValidAuthorizationHeaderButNoAccessToken] = 3
methodNames[4536650][<init>] = 9
methodNames[4536650][access_specifiers] = 1
methodNames[4536650][assignment] = 1
methodNames[4536650][bloque_func] = 1
methodNames[4536650][bloque_loop] = 1
methodNames[4536650][class_bloque] = 1
methodNames[4536650][class_definition] = 1
methodNames[4536650][conditional_else] = 1
methodNames[4536650][conditional_else_loop] = 1
methodNames[4536650][conditional_if] = 1
methodNames[4536650][conditional_if_loop] = 1
methodNames[4536650][conditionalexpr] = 1
methodNames[4536650][data_type] = 1
methodNames[4536650][declaration] = 1
methodNames[4536650][entrada] = 1
methodNames[4536650][exp_base] = 1
methodNames[4536650][exp_mult] = 1
methodNames[4536650][expr] = 1
methodNames[4536650][expr_string] = 1
methodNames[4536650][func_call] = 1
methodNames[4536650][func_def_and_dec] = 1
methodNames[4536650][function_definition] = 1
methodNames[4536650][import_package] = 1
methodNames[4536650][instruccion] = 1
methodNames[4536650][instrucciones] = 1
methodNames[4536650][loop] = 1
methodNames[4536650][mBLANCO] = 1
methodNames[4536650][mCADENA] = 1
methodNames[4536650][mCOL] = 1
methodNames[4536650][mCOMMA] = 1
methodNames[4536650][mCOMMENT] = 1
methodNames[4536650][mCOND] = 1
methodNames[4536650][mDEQUAL] = 1
methodNames[4536650][mDIGITO] = 1
methodNames[4536650][mEQUAL] = 1
methodNames[4536650][mIDENT] = 1
methodNames[4536650][mKOL] = 1
methodNames[4536650][mLETTER] = 1
methodNames[4536650][mMAS] = 1
methodNames[4536650][mMENOS] = 1
methodNames[4536650][mNOT] = 1
methodNames[4536650][mNUEVA_LINEA] = 1
methodNames[4536650][mNUMERO] = 1
methodNames[4536650][mOPERADOR] = 1
methodNames[4536650][mPARANT] = 1
methodNames[4536650][mPARENTESIS] = 1
methodNames[4536650][mQUES] = 1
methodNames[4536650][mSEPARADOR] = 1
methodNames[4536650][main] = 1
methodNames[4536650][mk_tokenSet_0] = 2
methodNames[4536650][mk_tokenSet_10] = 1
methodNames[4536650][mk_tokenSet_11] = 1
methodNames[4536650][mk_tokenSet_12] = 1
methodNames[4536650][mk_tokenSet_13] = 1
methodNames[4536650][mk_tokenSet_14] = 1
methodNames[4536650][mk_tokenSet_15] = 1
methodNames[4536650][mk_tokenSet_16] = 1
methodNames[4536650][mk_tokenSet_17] = 1
methodNames[4536650][mk_tokenSet_18] = 1
methodNames[4536650][mk_tokenSet_19] = 1
methodNames[4536650][mk_tokenSet_1] = 2
methodNames[4536650][mk_tokenSet_20] = 1
methodNames[4536650][mk_tokenSet_2] = 2
methodNames[4536650][mk_tokenSet_3] = 1
methodNames[4536650][mk_tokenSet_4] = 1
methodNames[4536650][mk_tokenSet_5] = 1
methodNames[4536650][mk_tokenSet_6] = 1
methodNames[4536650][mk_tokenSet_7] = 1
methodNames[4536650][mk_tokenSet_8] = 1
methodNames[4536650][mk_tokenSet_9] = 1
methodNames[4536650][nextToken] = 1
methodNames[4536650][object_creation] = 1
methodNames[4536650][package_declaration] = 1
methodNames[4536650][parameter] = 1
methodNames[4536650][parameter_func_def] = 1
methodNames[4536650][return_type] = 1
methodNames[4536650][syntacticalPredicate] = 1
methodNames[4536650][variables_with_commas] = 1
methodNames[4536651][<clinit>] = 2
methodNames[4536651][<init>] = 15
methodNames[4536651][ClearPanel] = 1
methodNames[4536651][MapArray] = 1
methodNames[4536651][build_menu] = 2
methodNames[4536651][checkParenthesis] = 1
methodNames[4536651][frame_close] = 2
methodNames[4536651][getCommands] = 2
methodNames[4536651][getConstraintsForCell] = 1
methodNames[4536651][getCounter] = 1
methodNames[4536651][getCurrentAngle] = 1
methodNames[4536651][getDrawableSymbols] = 1
methodNames[4536651][getEndPoint] = 1
methodNames[4536651][getGenerationRules] = 1
methodNames[4536651][getInitiator] = 1
methodNames[4536651][getIterator] = 1
methodNames[4536651][getLenght] = 1
methodNames[4536651][getLind] = 1
methodNames[4536651][getName] = 5
methodNames[4536651][getOutputString] = 1
methodNames[4536651][getParsedRule] = 1
methodNames[4536651][getRotateAngle] = 1
methodNames[4536651][getStartPoint] = 1
methodNames[4536651][getStart] = 2
methodNames[4536651][getStatus] = 2
methodNames[4536651][hasNext] = 1
methodNames[4536651][injectMappedString] = 1
methodNames[4536651][mDragged] = 1
methodNames[4536651][mMoved] = 1
methodNames[4536651][mPressed] = 1
methodNames[4536651][mReleased] = 1
methodNames[4536651][main] = 4
methodNames[4536651][makeCompactGrid] = 1
methodNames[4536651][next] = 1
methodNames[4536651][paintComponent] = 2
methodNames[4536651][painting] = 3
methodNames[4536651][parseString] = 2
methodNames[4536651][parserTest] = 1
methodNames[4536651][pop] = 1
methodNames[4536651][push] = 1
methodNames[4536651][putRule] = 1
methodNames[4536651][register] = 1
methodNames[4536651][register_listeners] = 2
methodNames[4536651][removeAllRules] = 1
methodNames[4536651][remove] = 1
methodNames[4536651][resetStartPoint] = 1
methodNames[4536651][reset] = 2
methodNames[4536651][run] = 10
methodNames[4536651][setColor] = 1
methodNames[4536651][setControlPane] = 1
methodNames[4536651][setCounter] = 1
methodNames[4536651][setEndPoint] = 1
methodNames[4536651][setGenerationRules] = 1
methodNames[4536651][setInitiator] = 1
methodNames[4536651][setIterator] = 1
methodNames[4536651][setPaintMode] = 1
methodNames[4536651][setPosition] = 1
methodNames[4536651][setStartPoint] = 1
methodNames[4536651][setfColor] = 1
methodNames[4536651][setpColor] = 2
methodNames[4536651][setpMode] = 1
methodNames[4536651][toString] = 6
methodNames[4536651][wrapText] = 1
methodNames[4536666][<init>] = 4
methodNames[4536666][afterSolve] = 1
methodNames[4536666][assemble] = 2
methodNames[4536666][assertAllAssigned] = 1
methodNames[4536666][assertAllocation] = 1
methodNames[4536666][code] = 1
methodNames[4536666][compile] = 1
methodNames[4536666][create] = 1
methodNames[4536666][getCode] = 1
methodNames[4536666][link] = 1
methodNames[4536666][newParsingState] = 1
methodNames[4536666][nm] = 1
methodNames[4536666][numNodesLiveAtBefore] = 1
methodNames[4536666][objectWithHashCode] = 2
methodNames[4536666][params] = 4
methodNames[4536666][printColumns] = 1
methodNames[4536666][printRegisterLife] = 1
methodNames[4536666][printRow] = 1
methodNames[4536666][printRows] = 1
methodNames[4536666][printShouldBeSwitches] = 1
methodNames[4536666][printVariableLife] = 1
methodNames[4536666][printVariableLiveness] = 1
methodNames[4536666][print] = 2
methodNames[4536666][randomString] = 2
methodNames[4536666][run] = 1
methodNames[4536666][setup] = 2
methodNames[4536666][solve] = 1
methodNames[4536666][suite] = 1
methodNames[4536666][testAliasingWithMemory1] = 1
methodNames[4536666][testAliasingWithMemory2] = 1
methodNames[4536666][testAliasing] = 1
methodNames[4536666][testAnotherSpillToStackAcrossFnCall] = 1
methodNames[4536666][testBMZ] = 2
methodNames[4536666][testConditionalMoves] = 1
methodNames[4536666][testEquality] = 1
methodNames[4536666][testExportBssVariable] = 1
methodNames[4536666][testExportDataVariable] = 1
methodNames[4536666][testExportFunction] = 1
methodNames[4536666][testFrontAccess] = 1
methodNames[4536666][testGlobalInitialisationOptimisation] = 1
methodNames[4536666][testGlobalInitialisationWITHOUTOptimisation] = 1
methodNames[4536666][testItCompiles] = 2
methodNames[4536666][testMemoryAddresses_binop_mem2var] = 1
methodNames[4536666][testMemoryAddresses_binop_var2mem] = 1
methodNames[4536666][testMemoryAddresses_move_cond] = 1
methodNames[4536666][testMemoryAddresses_move_imm2mem] = 1
methodNames[4536666][testMemoryAddresses_move_mem2var] = 1
methodNames[4536666][testMemoryAddresses_move_var2mem] = 1
methodNames[4536666][testMoreSpillage] = 1
methodNames[4536666][testNeedsAssigning] = 1
methodNames[4536666][testNoAssignment] = 1
methodNames[4536666][testOverflow] = 2
methodNames[4536666][testOverlapping] = 1
methodNames[4536666][testPrivateBssVariable] = 1
methodNames[4536666][testPrivateDataVariable] = 1
methodNames[4536666][testPrivateFunction] = 1
methodNames[4536666][testRandomAccess] = 1
methodNames[4536666][testSpillToStackAcrossFnCall] = 1
methodNames[4536666][testSpillage] = 1
methodNames[4536666][testUses] = 1
methodNames[4536666][testWhileNOConstant] = 1
methodNames[4536666][testWhileWITHConstant] = 1
methodNames[4536666][testcfg] = 1
methodNames[4536666][timeFrontAccesses] = 1
methodNames[4536666][timeRandomAccesses] = 1
methodNames[4536683][<init>] = 3
methodNames[4536683][addPlayer] = 2
methodNames[4536683][close] = 1
methodNames[4536683][copyFiles] = 1
methodNames[4536683][createIndex] = 1
methodNames[4536683][createTables] = 1
methodNames[4536683][delay] = 1
methodNames[4536683][executeQuery] = 1
methodNames[4536683][getBoolean] = 1
methodNames[4536683][getCommunicator] = 1
methodNames[4536683][getConfiguration] = 1
methodNames[4536683][getDb] = 1
methodNames[4536683][getInt] = 1
methodNames[4536683][getIp] = 2
methodNames[4536683][getMessage] = 1
methodNames[4536683][getPlayer] = 2
methodNames[4536683][getStatus] = 2
methodNames[4536683][getString] = 1
methodNames[4536683][get] = 1
methodNames[4536683][isOk] = 1
methodNames[4536683][loadDatabase] = 1
methodNames[4536683][onDisable] = 1
methodNames[4536683][onEnable] = 1
methodNames[4536683][onPlayerJoin] = 1
methodNames[4536683][onPlayerLogin] = 1
methodNames[4536683][open] = 1
methodNames[4536683][parseIp] = 1
methodNames[4536683][prepare] = 1
methodNames[4536683][reloadConnection] = 1
methodNames[4536683][reload] = 1
methodNames[4536683][saveConnection] = 1
methodNames[4536683][saveRam] = 3
methodNames[4536683][setupPermission] = 1
methodNames[4536720][SaveAll] = 1
methodNames[4536720][checkRam] = 1
methodNames[4536720][delayStop] = 1
methodNames[4536720][onDisable] = 1
methodNames[4536720][onEnable] = 1
methodNames[4536720][startTask] = 1
methodNames[4536725][<init>] = 1
methodNames[4536725][getVx] = 1
methodNames[4536725][getVy] = 1
methodNames[4536725][getX] = 1
methodNames[4536725][getY] = 1
methodNames[4536725][setVx] = 1
methodNames[4536725][setVy] = 1
methodNames[4536725][setX] = 1
methodNames[4536725][setY] = 1
methodNames[4536764][<init>] = 33
methodNames[4536764][AlustaPeli] = 3
methodNames[4536764][actionPerformed] = 13
methodNames[4536764][ammu] = 6
methodNames[4536764][distance] = 3
methodNames[4536764][huolehdiAanet] = 1
methodNames[4536764][huolehdiAmmukset] = 1
methodNames[4536764][huolehdiRaakileet] = 3
methodNames[4536764][huolehdiRakennukset] = 1
methodNames[4536764][huolehdiYksikot] = 1
methodNames[4536764][kaannyKohti] = 1
methodNames[4536764][keyPressed] = 3
methodNames[4536764][keyReleased] = 3
methodNames[4536764][keyTyped] = 3
methodNames[4536764][kirjoitaVirhe] = 3
methodNames[4536764][laskeFps] = 3
methodNames[4536764][lataaAanet] = 3
methodNames[4536764][lataaKentta] = 3
methodNames[4536764][liikuOikeasti] = 3
methodNames[4536764][liikutaKameraa] = 1
methodNames[4536764][liikutaYksikko] = 3
methodNames[4536764][liikutaYksikot] = 3
methodNames[4536764][loudaaKaikki] = 3
methodNames[4536764][main] = 3
methodNames[4536764][mouseClicked] = 3
methodNames[4536764][mouseDragged] = 3
methodNames[4536764][mouseEntered] = 3
methodNames[4536764][mouseExited] = 3
methodNames[4536764][mouseMoved] = 3
methodNames[4536764][mousePressed] = 3
methodNames[4536764][mouseReleased] = 3
methodNames[4536764][onkoEste] = 3
methodNames[4536764][paintComponent] = 3
methodNames[4536764][piirraAllaMerkki] = 3
methodNames[4536764][piirraAmmukset] = 3
methodNames[4536764][piirraMaasto] = 3
methodNames[4536764][piirraMassaNelio] = 3
methodNames[4536764][piirraMinimap] = 3
methodNames[4536764][piirraNapit] = 3
methodNames[4536764][piirraObjektitiedot] = 3
methodNames[4536764][piirraPalkinPohja] = 3
methodNames[4536764][piirraPalkki] = 3
methodNames[4536764][piirraRahatJaSahko] = 3
methodNames[4536764][piirraRakennukset] = 3
methodNames[4536764][piirraRakennusNelio] = 3
methodNames[4536764][piirraSaveLoad] = 3
methodNames[4536764][piirraValikko] = 3
methodNames[4536764][piirraVaroitus] = 3
methodNames[4536764][piirraVoitto] = 3
methodNames[4536764][piirraYksikko] = 3
methodNames[4536764][piirraYksikot] = 3
methodNames[4536764][randInt] = 3
methodNames[4536764][soita] = 3
methodNames[4536764][talletaKaikki] = 3
methodNames[4536764][tarkistaKuoliko] = 2
methodNames[4536764][uusiKuva] = 3
methodNames[4536764][uusiSuunta] = 3
methodNames[4536773][<init>] = 3
methodNames[4536773][actionPerformed] = 8
methodNames[4536773][etaisyys] = 2
methodNames[4536773][getVx] = 3
methodNames[4536773][getVy] = 3
methodNames[4536773][getX] = 3
methodNames[4536773][getY] = 3
methodNames[4536773][init] = 2
methodNames[4536773][liikutaPallo] = 2
methodNames[4536773][lisaaPallo] = 2
methodNames[4536773][mouseClicked] = 2
methodNames[4536773][mouseDragged] = 2
methodNames[4536773][mouseEntered] = 2
methodNames[4536773][mouseExited] = 2
methodNames[4536773][mouseMoved] = 3
methodNames[4536773][mousePressed] = 2
methodNames[4536773][mouseReleased] = 2
methodNames[4536773][muutaReunus] = 2
methodNames[4536773][paint] = 2
methodNames[4536773][randInt] = 2
methodNames[4536773][setVx] = 3
methodNames[4536773][setVy] = 3
methodNames[4536773][setX] = 3
methodNames[4536773][setY] = 3
methodNames[4536773][tarkistaOutousosuma] = 2
methodNames[4536773][tarkistaPalikkaosuma] = 2
methodNames[4536773][tarkistaPalloOsuma] = 2
methodNames[4536773][tarkistaReunaosuma] = 2
methodNames[4536773][teeLoppuvalmistelut] = 2
methodNames[4536773][teeOutous] = 2
methodNames[4536773][teePalikka] = 2
methodNames[4536773][update] = 2
methodNames[4536773][uusiPeli] = 2
methodNames[4536796][<init>] = 3
methodNames[4536796][alusta] = 1
methodNames[4536796][main] = 1
methodNames[4536796][paintComponent] = 1
methodNames[4536796][piirraPalkki] = 1
methodNames[4536796][piirraTallipalkit] = 1
methodNames[4536809][<init>] = 7
methodNames[4536809][addInput] = 1
methodNames[4536809][add] = 1
methodNames[4536809][assertFieldError] = 1
methodNames[4536809][assertMatches] = 1
methodNames[4536809][attr] = 2
methodNames[4536809][changeURI] = 1
methodNames[4536809][children] = 1
methodNames[4536809][clearSession] = 1
methodNames[4536809][clickButtonName] = 1
methodNames[4536809][clickLinkName] = 1
methodNames[4536809][clickName] = 2
methodNames[4536809][clickReload] = 1
methodNames[4536809][click] = 1
methodNames[4536809][configuration] = 1
methodNames[4536809][containsMessage] = 1
methodNames[4536809][contains] = 3
methodNames[4536809][first] = 1
methodNames[4536809][form] = 1
methodNames[4536809][getElementsByClass] = 1
methodNames[4536809][getElementsByTag] = 1
methodNames[4536809][getParams] = 1
methodNames[4536809][get] = 3
methodNames[4536809][html] = 1
methodNames[4536809][index] = 1
methodNames[4536809][iterator] = 1
methodNames[4536809][last] = 1
methodNames[4536809][parent] = 1
methodNames[4536809][post] = 1
methodNames[4536809][process] = 1
methodNames[4536809][remove] = 1
methodNames[4536809][save] = 2
methodNames[4536809][set] = 2
methodNames[4536809][size] = 1
methodNames[4536809][startApp] = 1
methodNames[4536809][stopApp] = 1
methodNames[4536809][submitName] = 1
methodNames[4536809][submitTo] = 1
methodNames[4536809][testIndex] = 1
methodNames[4536809][text] = 2
methodNames[4536809][toString] = 2
methodNames[4536839][<init>] = 1
methodNames[4536839][HSLToRGB] = 1
methodNames[4536839][bookkeepThread] = 1
methodNames[4536839][createImage] = 2
methodNames[4536839][createThread] = 2
methodNames[4536839][drawProjectedRectangleSurface] = 2
methodNames[4536839][drawProjectedRectangleWireframe] = 2
methodNames[4536839][initializeDepthImage] = 1
methodNames[4536839][main] = 6
methodNames[4536839][manipulateBufferedImage] = 2
methodNames[4536839][max] = 2
methodNames[4536839][min] = 2
methodNames[4536839][test] = 1
methodNames[4536839][writeImageToDisk] = 2
methodNames[4536935][<init>] = 24
methodNames[4536935][addInterval] = 2
methodNames[4536935][calculate] = 2
methodNames[4536935][evaluate] = 2
methodNames[4536935][getBoundLeft] = 2
methodNames[4536935][getBoundRight] = 2
methodNames[4536935][getInputPrecedence] = 2
methodNames[4536935][getOperator] = 2
methodNames[4536935][getResult] = 2
methodNames[4536935][getStackPrecedence] = 2
methodNames[4536935][getValue] = 2
methodNames[4536935][inInterval] = 2
methodNames[4536935][isOperator] = 2
methodNames[4536935][round] = 2
methodNames[4536935][setBoundLeft] = 2
methodNames[4536935][setBoundRight] = 2
methodNames[4536935][setLeftClosed] = 2
methodNames[4536935][setLeftOpened] = 2
methodNames[4536935][setRightClosed] = 2
methodNames[4536935][setRightOpened] = 2
methodNames[4536935][testSomething] = 2
methodNames[4536949][onClick] = 1
methodNames[4536949][onCreate] = 1
methodNames[4536979][home] = 2
methodNames[4536983][<init>] = 3
methodNames[4536983][main] = 4
methodNames[4536983][run] = 2
methodNames[4536983][say] = 1
methodNames[4537048][<init>] = 10
methodNames[4537048][createGUI] = 1
methodNames[4537048][exportKeyPair] = 1
methodNames[4537048][finalize] = 1
methodNames[4537048][generateKeyPair] = 1
methodNames[4537048][getBtnProceed] = 1
methodNames[4537048][getIdentifier] = 1
methodNames[4537048][getInstance] = 1
methodNames[4537048][getLblErrorMessage] = 1
methodNames[4537048][getLblKeyringIdentifier] = 1
methodNames[4537048][getLblPassPhrase] = 1
methodNames[4537048][getLblPleaseWaitWhile] = 1
methodNames[4537048][getMessage] = 2
methodNames[4537048][getPanelBtnContainer] = 1
methodNames[4537048][getPanel] = 1
methodNames[4537048][getPassword] = 1
methodNames[4537048][getPwdPassword] = 1
methodNames[4537048][getTxtIdentifier] = 1
methodNames[4537048][getTxtrTheKeyIdentifier] = 1
methodNames[4537048][getTxtrThePassPhrase] = 1
methodNames[4537048][giveFeedback] = 1
methodNames[4537048][handleException] = 1
methodNames[4537048][initMessagesBundle] = 1
methodNames[4537048][init] = 1
methodNames[4537048][initialize] = 1
methodNames[4537048][normalizeIdentity] = 1
methodNames[4537048][receiveFeedback] = 1
methodNames[4537048][recvDataInputPanelFeedback] = 1
methodNames[4537048][register] = 1
methodNames[4537048][sendHttpsRequest] = 1
methodNames[4537048][setIdentifier] = 1
methodNames[4537048][setPassword] = 1
methodNames[4537048][uploadFile] = 2
methodNames[4537158][<clinit>] = 3
methodNames[4537158][<init>] = 16
methodNames[4537158][add_selection] = 2
methodNames[4537158][clear_selection] = 1
methodNames[4537158][componentAdded] = 1
methodNames[4537158][contains] = 1
methodNames[4537158][convertModString] = 1
methodNames[4537158][copy_text] = 1
methodNames[4537158][cut_text] = 1
methodNames[4537158][delete_text] = 1
methodNames[4537158][dispatchFocusEvent] = 1
methodNames[4537158][dispatchKeyEvent] = 1
methodNames[4537158][do_action] = 1
methodNames[4537158][emitSignal] = 1
methodNames[4537158][eventDispatched] = 1
methodNames[4537158][focusNotify] = 1
methodNames[4537158][getGdkKeyCode] = 1
methodNames[4537158][getGdkKeyString] = 1
methodNames[4537158][getKey] = 1
methodNames[4537158][getNextSentenceEnd] = 1
methodNames[4537158][getNextSentenceStart] = 1
methodNames[4537158][getNextWordEnd] = 1
methodNames[4537158][getNextWordStart] = 1
methodNames[4537158][getPartTypeFromBoundary] = 1
methodNames[4537158][getPreviousSentenceEnd] = 1
methodNames[4537158][getPreviousSentenceStart] = 1
methodNames[4537158][getPreviousWordEnd] = 1
methodNames[4537158][getPreviousWordStart] = 1
methodNames[4537158][get_accessible_at_point] = 1
methodNames[4537158][get_caret_offset] = 1
methodNames[4537158][get_character_at_offset] = 1
methodNames[4537158][get_character_count] = 1
methodNames[4537158][get_character_extents] = 1
methodNames[4537158][get_current_value] = 1
methodNames[4537158][get_description] = 1
methodNames[4537158][get_end_index] = 1
methodNames[4537158][get_image_description] = 1
methodNames[4537158][get_image_position] = 1
methodNames[4537158][get_image_size] = 1
methodNames[4537158][get_keybinding] = 1
methodNames[4537158][get_layer] = 1
methodNames[4537158][get_link] = 1
methodNames[4537158][get_link_index] = 1
methodNames[4537158][get_maximum_value] = 1
methodNames[4537158][get_minimum_value] = 1
methodNames[4537158][get_n_actions] = 1
methodNames[4537158][get_n_anchors] = 1
methodNames[4537158][get_n_links] = 1
methodNames[4537158][get_n_selections] = 1
methodNames[4537158][get_name] = 1
methodNames[4537158][get_object] = 1
methodNames[4537158][get_offset_at_point] = 1
methodNames[4537158][get_position] = 1
methodNames[4537158][get_range_extents] = 1
methodNames[4537158][get_selection] = 1
methodNames[4537158][get_selection_count] = 1
methodNames[4537158][get_size] = 1
methodNames[4537158][get_start_index] = 1
methodNames[4537158][get_text] = 1
methodNames[4537158][get_text_after_offset] = 1
methodNames[4537158][get_text_at_offset] = 1
methodNames[4537158][get_text_before_offset] = 1
methodNames[4537158][get_uri] = 1
methodNames[4537158][grab_focus] = 1
methodNames[4537158][initNativeLibrary] = 1
methodNames[4537158][initializeMap] = 1
methodNames[4537158][insert_text] = 1
methodNames[4537158][is_child_selected] = 1
methodNames[4537158][is_valid] = 1
methodNames[4537158][main] = 2
methodNames[4537158][objectStateChange] = 1
methodNames[4537158][paste_text] = 1
methodNames[4537158][printLog] = 1
methodNames[4537158][private_get_text_after_offset] = 1
methodNames[4537158][private_get_text_at_offset] = 1
methodNames[4537158][private_get_text_before_offset] = 1
methodNames[4537158][propertyChange] = 1
methodNames[4537158][ref_selection] = 1
methodNames[4537158][registerPropertyChangeListener] = 1
methodNames[4537158][remove_selection] = 2
methodNames[4537158][run] = 1
methodNames[4537158][select_all_selection] = 1
methodNames[4537158][set_caret_offset] = 1
methodNames[4537158][set_current_value] = 1
methodNames[4537158][set_selection] = 1
methodNames[4537158][set_text_contents] = 1
methodNames[4537158][windowActivate] = 1
methodNames[4537158][windowActivated] = 1
methodNames[4537158][windowClose] = 1
methodNames[4537158][windowClosed] = 1
methodNames[4537158][windowClosing] = 1
methodNames[4537158][windowDeactivate] = 1
methodNames[4537158][windowDeactivated] = 1
methodNames[4537158][windowDeiconified] = 1
methodNames[4537158][windowGainedFocus] = 1
methodNames[4537158][windowIconified] = 1
methodNames[4537158][windowLostFocus] = 1
methodNames[4537158][windowMaximize] = 1
methodNames[4537158][windowMinimize] = 1
methodNames[4537158][windowOpen] = 1
methodNames[4537158][windowOpened] = 1
methodNames[4537158][windowRestore] = 1
methodNames[4537158][windowStateChange] = 1
methodNames[4537158][windowStateChanged] = 1
methodNames[4537186][iterate] = 1
methodNames[4537186][onCreate] = 1
methodNames[4537186][sequence_to_string] = 1
methodNames[4537233][<init>] = 2
methodNames[4537233][current] = 1
methodNames[4537233][decodeURLBase64] = 1
methodNames[4537233][doPost] = 1
methodNames[4537233][fixed] = 1
methodNames[4537233][main] = 1
methodNames[4537233][millis] = 1
methodNames[4537233][newCache] = 1
methodNames[4537233][parse] = 1
methodNames[4537233][testPrimary] = 1
methodNames[4537233][testSecondary] = 1
methodNames[4537233][verify] = 3
methodNames[4537300][announce] = 2
methodNames[4537300][button] = 1
methodNames[4537300][genWidget] = 1
methodNames[4537300][neighbours] = 1
methodNames[4537300][onCreate] = 1
methodNames[4537300][onReceive] = 1
methodNames[4537300][onStart] = 1
methodNames[4537300][refreshApp] = 2
methodNames[4537300][refreshWidgets] = 1
methodNames[4537300][reset] = 1
methodNames[4537300][startUpdate] = 1
methodNames[4537300][start] = 2
methodNames[4537300][stopUpdate] = 1
methodNames[4537300][stop] = 2
methodNames[4537300][update] = 3
methodNames[4537384][addDigits] = 1
methodNames[4537384][doGet] = 1
methodNames[4537384][doPost] = 1
methodNames[4537384][getServletInfo] = 1
methodNames[4537384][processRequest] = 1
methodNames[4537407][<init>] = 6
methodNames[4537407][actualizar] = 2
methodNames[4537407][agregarNoDeberiaAgregarDuplicado] = 1
methodNames[4537407][agregarObservador] = 1
methodNames[4537407][agregar] = 2
methodNames[4537407][deberiaNootificarObservadoresAlComenzarCadaCiclo] = 1
methodNames[4537407][detenerEjecucion] = 1
methodNames[4537407][dibujar] = 5
methodNames[4537407][estaEjecutando] = 1
methodNames[4537407][getBuffer] = 1
methodNames[4537407][getCantidadDeObjetosVivos] = 1
methodNames[4537407][getColor] = 1
methodNames[4537407][getFrecuencia] = 1
methodNames[4537407][getPosicionable] = 2
methodNames[4537407][getRadio] = 1
methodNames[4537407][getSuperficieDeDibujo] = 1
methodNames[4537407][getX] = 1
methodNames[4537407][getY] = 1
methodNames[4537407][iniciarEjecucionDeberiaInvocarDibujar] = 1
methodNames[4537407][iniciarEjecucionDeberiaInvocarLimpiar] = 1
methodNames[4537407][iniciarEjecucionDeberiaInvocarVivir] = 1
methodNames[4537407][iniciarEjecucion] = 1
methodNames[4537407][limpiar] = 1
methodNames[4537407][notificarCicloFinalizado] = 1
methodNames[4537407][paintDeberiaInvocarDrawImageYLimpiar] = 1
methodNames[4537407][paint] = 1
methodNames[4537407][removerObservador] = 1
methodNames[4537407][remover] = 2
methodNames[4537407][run] = 1
methodNames[4537407][setColor] = 1
methodNames[4537407][setFrecuencia] = 1
methodNames[4537407][setImagen] = 1
methodNames[4537407][setUp] = 1
methodNames[4537407][testDibujar] = 3
methodNames[4537407][update] = 1
methodNames[4537407][vivir] = 1
methodNames[4537421][<clinit>] = 2
methodNames[4537421][<init>] = 35
methodNames[4537421][abortAuthentication] = 1
methodNames[4537421][checkClientTrusted] = 2
methodNames[4537421][checkRateLimit] = 1
methodNames[4537421][checkServerTrusted] = 2
methodNames[4537421][createHttpClient] = 2
methodNames[4537421][decode] = 2
methodNames[4537421][decreaseRateLimit] = 1
methodNames[4537421][encode] = 2
methodNames[4537421][error] = 1
methodNames[4537421][executeRequest] = 1
methodNames[4537421][finalize] = 1
methodNames[4537421][finishAuthentication] = 1
methodNames[4537421][formatError] = 1
methodNames[4537421][generateAuthorizationData] = 2
methodNames[4537421][generateAuthorization] = 2
methodNames[4537421][generateNonce] = 2
methodNames[4537421][generateSignature] = 2
methodNames[4537421][getAcceptedIssuers] = 2
methodNames[4537421][getHourlyLimit] = 1
methodNames[4537421][getKeyStorePath] = 2
methodNames[4537421][getKeyStore] = 2
methodNames[4537421][getOAuthTokenSecret] = 1
methodNames[4537421][getOAuthToken] = 1
methodNames[4537421][getRemainingHits] = 1
methodNames[4537421][getResetTime] = 1
methodNames[4537421][getResponseText] = 1
methodNames[4537421][getResponse] = 2
methodNames[4537421][getScreenName] = 1
methodNames[4537421][getStoredError] = 1
methodNames[4537421][getUserId] = 1
methodNames[4537421][getVerificationHandler] = 2
methodNames[4537421][isAuthenticatedOrAnonymous] = 1
methodNames[4537421][isAuthenticated] = 3
methodNames[4537421][isAuthenticating] = 1
methodNames[4537421][isLimitInvalid] = 1
methodNames[4537421][logout] = 1
methodNames[4537421][onAuthenticate] = 2
methodNames[4537421][onAuthenticationAborted] = 1
methodNames[4537421][onAuthenticationCompleted] = 2
methodNames[4537421][onError] = 4
methodNames[4537421][onLogout] = 1
methodNames[4537421][onRateLimitChanged] = 2
methodNames[4537421][parseResponse] = 2
methodNames[4537421][reinitialize] = 2
methodNames[4537421][reloadErrorStrings] = 1
methodNames[4537421][run] = 1
methodNames[4537421][setAuthenticated] = 2
methodNames[4537421][setOAuthConsumerKey] = 2
methodNames[4537421][setOAuthConsumerSecret] = 2
methodNames[4537421][setOAuthTokenSecret] = 2
methodNames[4537421][setOAuthToken] = 2
methodNames[4537421][setProxy] = 2
methodNames[4537421][setResponse] = 2
methodNames[4537421][setVerificationHandler] = 2
methodNames[4537421][shutdownNow] = 1
methodNames[4537421][shutdown] = 1
methodNames[4537421][startAuthentication] = 1
methodNames[4537421][updateRateLimit] = 1
methodNames[4537421][verify] = 2
methodNames[4537488][<init>] = 8
methodNames[4537488][getAll] = 2
methodNames[4537488][getDescription] = 1
methodNames[4537488][getDose] = 1
methodNames[4537488][getHours] = 1
methodNames[4537488][getId] = 4
methodNames[4537488][getInstance] = 1
methodNames[4537488][getLabel] = 1
methodNames[4537488][getMedicationRepository] = 1
methodNames[4537488][getMedications] = 2
methodNames[4537488][getMinutes] = 1
methodNames[4537488][getQuestionId] = 1
methodNames[4537488][getQuestionRepository] = 1
methodNames[4537488][getQuestions] = 2
methodNames[4537488][getResponseKey] = 1
methodNames[4537488][getResponseRepository] = 1
methodNames[4537488][getResponses] = 2
methodNames[4537488][getTimeStamp] = 2
methodNames[4537488][getUnits] = 1
methodNames[4537488][getValue] = 1
methodNames[4537488][getViewName] = 1
methodNames[4537488][loadQuestions] = 1
methodNames[4537488][onCreate] = 2
methodNames[4537488][onKeyDown] = 1
methodNames[4537488][onResume] = 1
methodNames[4537488][openGraphs] = 1
methodNames[4537488][openJournal] = 1
methodNames[4537488][openMedicine] = 1
methodNames[4537488][openReview] = 1
methodNames[4537488][saveAndGoHome] = 1
methodNames[4537488][saveAndQuit] = 1
methodNames[4537488][save] = 9
methodNames[4537488][setDescription] = 1
methodNames[4537488][setDose] = 1
methodNames[4537488][setHours] = 1
methodNames[4537488][setId] = 4
methodNames[4537488][setLabel] = 1
methodNames[4537488][setMinutes] = 1
methodNames[4537488][setQuestionId] = 1
methodNames[4537488][setResponseKey] = 1
methodNames[4537488][setTimeStamp] = 2
methodNames[4537488][setUnits] = 1
methodNames[4537488][setValue] = 1
methodNames[4537488][showQuestions] = 1
methodNames[4537488][stripSpace] = 1
methodNames[4537488][toString] = 1
methodNames[4537506][<init>] = 61
methodNames[4537506][accept] = 2
methodNames[4537506][actionPerformed] = 11
methodNames[4537506][addChangeListener] = 4
methodNames[4537506][addPageIfEmpty] = 2
methodNames[4537506][add] = 2
methodNames[4537506][askForResolution] = 1
methodNames[4537506][compareTo] = 1
methodNames[4537506][compare] = 3
methodNames[4537506][compress] = 1
methodNames[4537506][createNamedTempNoteBook] = 1
methodNames[4537506][createNewNotebook] = 3
methodNames[4537506][createTempNoteBook] = 1
methodNames[4537506][deleteEvent] = 2
methodNames[4537506][deleteSure] = 1
methodNames[4537506][delete] = 2
methodNames[4537506][drawHelpSplash] = 2
methodNames[4537506][drawHelp] = 2
methodNames[4537506][drawLine] = 9
methodNames[4537506][drawLines] = 2
methodNames[4537506][drawMemoryUsage] = 1
methodNames[4537506][drawOnionInfo] = 2
methodNames[4537506][drawPageNumber] = 2
methodNames[4537506][drawScrollPanels] = 2
methodNames[4537506][eraseLine] = 7
methodNames[4537506][findNotebooks] = 3
methodNames[4537506][fireDoneDrawing] = 2
methodNames[4537506][freeImage] = 1
methodNames[4537506][generateNextFilename] = 2
methodNames[4537506][generatedComment] = 1
methodNames[4537506][getBoolean] = 3
methodNames[4537506][getCachedImage] = 2
methodNames[4537506][getColor] = 2
methodNames[4537506][getConfig] = 1
methodNames[4537506][getCurrentSheet] = 2
methodNames[4537506][getDefaultConfig] = 2
methodNames[4537506][getDouble] = 2
methodNames[4537506][getFile] = 1
methodNames[4537506][getGraphics] = 2
methodNames[4537506][getHeight] = 1
methodNames[4537506][getImageWrapper] = 3
methodNames[4537506][getImg] = 9
methodNames[4537506][getInteger] = 3
methodNames[4537506][getInvalidationThread] = 1
methodNames[4537506][getName] = 2
methodNames[4537506][getOutfile] = 4
methodNames[4537506][getPagecount] = 1
methodNames[4537506][getPagenumber] = 2
methodNames[4537506][getSheetCount] = 2
methodNames[4537506][getSize] = 1
methodNames[4537506][getString] = 3
methodNames[4537506][getTempNoteSheet] = 1
methodNames[4537506][getUserConfig] = 2
methodNames[4537506][getWidth] = 1
methodNames[4537506][get] = 2
methodNames[4537506][goBackwards] = 4
methodNames[4537506][goForward] = 4
methodNames[4537506][gotoFirst] = 4
methodNames[4537506][gotoLast] = 4
methodNames[4537506][handleError] = 3
methodNames[4537506][hasCachedImage] = 2
methodNames[4537506][initDefaultConfig] = 2
methodNames[4537506][initMainConfig] = 1
methodNames[4537506][initNewImage] = 1
methodNames[4537506][initUserConfig] = 2
methodNames[4537506][isButtonForCommand] = 2
methodNames[4537506][isColorWithAlpha] = 2
methodNames[4537506][isFileInQueue] = 2
methodNames[4537506][isKeyForCommand] = 2
methodNames[4537506][isKeyGoBack] = 1
methodNames[4537506][isKeyGoForward] = 1
methodNames[4537506][isKeyGotoFirst] = 1
methodNames[4537506][isKeyGotoLast] = 1
methodNames[4537506][isOnionMode] = 2
methodNames[4537506][isSwapped] = 2
methodNames[4537506][keepAlive] = 1
methodNames[4537506][keyPressed] = 6
methodNames[4537506][keyReleased] = 6
methodNames[4537506][keyTyped] = 6
methodNames[4537506][loadFromFile] = 2
methodNames[4537506][loadImagesFromFolder] = 2
methodNames[4537506][log] = 3
methodNames[4537506][main] = 2
methodNames[4537506][mouseClicked] = 5
methodNames[4537506][mouseDragged] = 3
methodNames[4537506][mouseEntered] = 4
methodNames[4537506][mouseExited] = 4
methodNames[4537506][mouseMoved] = 3
methodNames[4537506][mousePressed] = 4
methodNames[4537506][mouseReleased] = 4
methodNames[4537506][newEvent] = 2
methodNames[4537506][onionLayersDecrease] = 2
methodNames[4537506][onionLayersIncrease] = 2
methodNames[4537506][openEvent] = 2
methodNames[4537506][openNotebook] = 3
methodNames[4537506][paintComponent] = 4
methodNames[4537506][quitWithWriteoutThread] = 2
methodNames[4537506][resetCachedImage] = 2
methodNames[4537506][resetImageWrapper] = 1
methodNames[4537506][retrieve] = 2
methodNames[4537506][run] = 6
methodNames[4537506][saveToConfig] = 1
methodNames[4537506][saveToFile] = 2
methodNames[4537506][saveToFiles] = 2
methodNames[4537506][schedule] = 3
methodNames[4537506][scribbleEvent] = 2
methodNames[4537506][setDebug] = 2
methodNames[4537506][setDoneDrawing] = 2
methodNames[4537506][setLines] = 2
methodNames[4537506][setShowHelp] = 3
methodNames[4537506][set] = 2
methodNames[4537506][showDialog] = 3
methodNames[4537506][shutdown] = 1
methodNames[4537506][stopAfterLast] = 3
methodNames[4537506][stopWriteoutThread] = 2
methodNames[4537506][suite] = 1
methodNames[4537506][testAlphanumeric] = 1
methodNames[4537506][testAutomaticSaveOnPageFlipBackwards] = 1
methodNames[4537506][testAutomaticSaveOnPageFlipForward] = 1
methodNames[4537506][testBackWithEmptyLastSheet] = 1
methodNames[4537506][testCharArray] = 1
methodNames[4537506][testChar] = 1
methodNames[4537506][testCompression] = 1
methodNames[4537506][testCurrentSheet] = 1
methodNames[4537506][testDeletionOfPictureFile] = 1
methodNames[4537506][testDrawing] = 2
methodNames[4537506][testEmptySheetCount] = 1
methodNames[4537506][testEqual] = 1
methodNames[4537506][testErasing] = 1
methodNames[4537506][testGoBackwards] = 1
methodNames[4537506][testGotoLast] = 1
methodNames[4537506][testGreater] = 1
methodNames[4537506][testKeyCodeArray] = 1
methodNames[4537506][testKeyCode] = 1
methodNames[4537506][testLess] = 1
methodNames[4537506][testLetters] = 1
methodNames[4537506][testLoadFromConfig] = 1
methodNames[4537506][testLongNumber] = 1
methodNames[4537506][testNegativeNumber] = 1
methodNames[4537506][testNoSuffix] = 1
methodNames[4537506][testOneDigitKeyCodeWithPadding] = 1
methodNames[4537506][testOneDigitKeyCodeWithoutPadding] = 1
methodNames[4537506][testPageNumber] = 1
methodNames[4537506][testPositive] = 1
methodNames[4537506][testSavingAfterDrawingAndAdvance] = 1
methodNames[4537506][testSavingAfterDrawing] = 1
methodNames[4537506][testSavingAfterNew] = 1
methodNames[4537506][testSavingAfterTwoDrawingAndAdvance] = 1
methodNames[4537506][testSheetCountAfterFirstLine] = 1
methodNames[4537506][testShort] = 1
methodNames[4537506][testSimple] = 1
methodNames[4537506][testSingleWriteout] = 1
methodNames[4537506][testSpaces] = 1
methodNames[4537506][testText] = 1
methodNames[4537506][testTouchedWithEmptyTempfile] = 1
methodNames[4537506][testTouched] = 1
methodNames[4537506][testUntouchedFirstPage] = 1
methodNames[4537506][testVersionName] = 2
methodNames[4537506][testWrongSuffix] = 1
methodNames[4537506][testZero] = 1
methodNames[4537506][testing_finalize] = 1
methodNames[4537506][toString] = 2
methodNames[4537506][toggleGraphRuling] = 2
methodNames[4537506][toggleHelp] = 3
methodNames[4537506][toggleRuling] = 2
methodNames[4537506][touched] = 2
methodNames[4537506][unsaved] = 2
methodNames[4537506][updateCurrrentItem] = 1
methodNames[4537506][updateOpenButton] = 3
methodNames[4537506][windowClosing] = 2
methodNames[4537520][<init>] = 30
methodNames[4537520][Creat] = 1
methodNames[4537520][GetList] = 1
methodNames[4537520][Open] = 1
methodNames[4537520][ReadMatrix] = 1
methodNames[4537520][SaveMatrix] = 1
methodNames[4537520][Save] = 1
methodNames[4537520][Savefor] = 1
methodNames[4537520][Trans] = 1
methodNames[4537520][_jspDestroy] = 16
methodNames[4537520][_jspInit] = 16
methodNames[4537520][_jspService] = 16
methodNames[4537520][actionPerformed] = 4
methodNames[4537520][add_Words] = 1
methodNames[4537520][area] = 1
methodNames[4537520][closeOracle] = 1
methodNames[4537520][drawtank] = 1
methodNames[4537520][exeSql] = 1
methodNames[4537520][exesqlQuery] = 1
methodNames[4537520][foryes] = 1
methodNames[4537520][getAge] = 2
methodNames[4537520][getDependants] = 16
methodNames[4537520][getDirect] = 1
methodNames[4537520][getHabit] = 2
methodNames[4537520][getHobby] = 2
methodNames[4537520][getI] = 1
methodNames[4537520][getM] = 1
methodNames[4537520][getName] = 2
methodNames[4537520][getPassword] = 2
methodNames[4537520][getSex] = 2
methodNames[4537520][getSpeed] = 1
methodNames[4537520][getT] = 1
methodNames[4537520][getType] = 1
methodNames[4537520][getUserID] = 1
methodNames[4537520][getWordsContent] = 1
methodNames[4537520][getWordsID] = 1
methodNames[4537520][getWordsTime] = 1
methodNames[4537520][getWordsTitle] = 1
methodNames[4537520][getX] = 1
methodNames[4537520][getY] = 1
methodNames[4537520][getnum] = 1
methodNames[4537520][getpword] = 1
methodNames[4537520][gtext] = 1
methodNames[4537520][init] = 1
methodNames[4537520][isDouble] = 1
methodNames[4537520][isInteger] = 1
methodNames[4537520][itemStateChanged] = 1
methodNames[4537520][keyPressed] = 1
methodNames[4537520][keyReleased] = 1
methodNames[4537520][keyTyped] = 1
methodNames[4537520][loadserver] = 1
methodNames[4537520][main] = 15
methodNames[4537520][makeButton] = 1
methodNames[4537520][mouseClicked] = 7
methodNames[4537520][mouseMoved] = 2
methodNames[4537520][moveDOWN] = 1
methodNames[4537520][moveLEFT] = 1
methodNames[4537520][moveRIGHT] = 1
methodNames[4537520][moveUP] = 1
methodNames[4537520][onCreate] = 1
methodNames[4537520][openDialog] = 1
methodNames[4537520][paint] = 1
methodNames[4537520][perimeter] = 1
methodNames[4537520][readmatrix] = 1
methodNames[4537520][run] = 4
methodNames[4537520][setAge] = 2
methodNames[4537520][setDirect] = 1
methodNames[4537520][setHabit] = 2
methodNames[4537520][setName] = 2
methodNames[4537520][setPassword] = 2
methodNames[4537520][setSex] = 2
methodNames[4537520][setSpeed] = 1
methodNames[4537520][setType] = 1
methodNames[4537520][setUserID] = 1
methodNames[4537520][setWordsContent] = 1
methodNames[4537520][setWordsID] = 1
methodNames[4537520][setWordsTime] = 1
methodNames[4537520][setWordsTitle] = 1
methodNames[4537520][setX] = 1
methodNames[4537520][setY] = 1
methodNames[4537520][shot] = 1
methodNames[4537520][show_all_words] = 1
methodNames[4537520][stext] = 1
methodNames[4537520][windowClosing] = 1
methodNames[4537537][<init>] = 44
methodNames[4537537][RAMEstimate] = 3
methodNames[4537537][RAMEstimation] = 1
methodNames[4537537][TupleWithoutWeightLineReader] = 1
methodNames[4537537][_loadDataInfo] = 2
methodNames[4537537][_train] = 6
methodNames[4537537][addListener] = 1
methodNames[4537537][add] = 3
methodNames[4537537][aggregate] = 1
methodNames[4537537][applyPenalty] = 1
methodNames[4537537][buildOptions] = 1
methodNames[4537537][bytes2long] = 1
methodNames[4537537][capacity] = 3
methodNames[4537537][checkAndGet] = 1
methodNames[4537537][classificationFormatFastConverter] = 1
methodNames[4537537][clear] = 2
methodNames[4537537][close] = 14
methodNames[4537537][collect] = 6
methodNames[4537537][compare] = 1
methodNames[4537537][convert] = 4
methodNames[4537537][crossValidation] = 3
methodNames[4537537][cvfold] = 1
methodNames[4537537][displayArray] = 1
methodNames[4537537][enlarge] = 3
methodNames[4537537][equals] = 2
methodNames[4537537][estimateParameter] = 3
methodNames[4537537][estimate] = 5
methodNames[4537537][estimation] = 1
methodNames[4537537][extractFeatureId] = 1
methodNames[4537537][extractWeight] = 1
methodNames[4537537][featureStat] = 4
methodNames[4537537][fileCache] = 1
methodNames[4537537][fillBuffer] = 1
methodNames[4537537][fillVector] = 2
methodNames[4537537][float2OutputBytes] = 1
methodNames[4537537][floatTobytes] = 1
methodNames[4537537][getAbsFilePrefixPath] = 1
methodNames[4537537][getBytesReaderFromSta] = 1
methodNames[4537537][getDataSetInfo] = 2
methodNames[4537537][getDeserClass] = 3
methodNames[4537537][getDoubleFromProperties] = 1
methodNames[4537537][getDoubleFromSer] = 1
methodNames[4537537][getFilePath] = 1
methodNames[4537537][getIntFromProperties] = 1
methodNames[4537537][getItemNum] = 1
methodNames[4537537][getLeft] = 2
methodNames[4537537][getNormalNextRating] = 1
methodNames[4537537][getOutPrefix] = 1
methodNames[4537537][getOutputSuffix] = 2
methodNames[4537537][getProperties] = 6
methodNames[4537537][getRatingByIndex] = 1
methodNames[4537537][getRight] = 2
methodNames[4537537][getStatIter] = 4
methodNames[4537537][getStrFromProperties] = 1
methodNames[4537537][getUid] = 1
methodNames[4537537][getUserById] = 1
methodNames[4537537][getVectorById] = 3
methodNames[4537537][getVectorParameter] = 2
methodNames[4537537][getVectorStatus] = 2
methodNames[4537537][get] = 4
methodNames[4537537][gradientDescend] = 2
methodNames[4537537][graphWithoutWeightConverter] = 2
methodNames[4537537][hasNext] = 1
methodNames[4537537][hashCode] = 2
methodNames[4537537][idOnlyFormat] = 1
methodNames[4537537][init] = 5
methodNames[4537537][init_space] = 1
methodNames[4537537][init_spaces] = 3
methodNames[4537537][innerProduct] = 4
methodNames[4537537][input] = 1
methodNames[4537537][int2outputbytes] = 1
methodNames[4537537][loadData] = 8
methodNames[4537537][loadModel] = 8
methodNames[4537537][load] = 1
methodNames[4537537][long2bytes] = 1
methodNames[4537537][long2outputbytes] = 1
methodNames[4537537][loops] = 1
methodNames[4537537][main] = 24
methodNames[4537537][merge] = 1
methodNames[4537537][nextKeyValuePair] = 1
methodNames[4537537][nextNumber] = 1
methodNames[4537537][nextUser] = 1
methodNames[4537537][next] = 8
methodNames[4537537][normalClassificationFormatBytesReader] = 1
methodNames[4537537][normalClassificationFormatBytesWriter] = 1
methodNames[4537537][normalClassificationFormatLineReader] = 1
methodNames[4537537][normalClassificationFormatLineWriter] = 1
methodNames[4537537][normalClassificationFormat] = 1
methodNames[4537537][normalFIMFormatBytesReader] = 1
methodNames[4537537][normalFIMFormatBytesWriter] = 1
methodNames[4537537][normalFIMFormatLineReader] = 1
methodNames[4537537][normalFIMFormatLineWriter] = 1
methodNames[4537537][normalFIMFormat] = 1
methodNames[4537537][normalclassificationFormatConverter] = 1
methodNames[4537537][open] = 11
methodNames[4537537][outputStat] = 1
methodNames[4537537][output] = 1
methodNames[4537537][parseLineInfo] = 1
methodNames[4537537][predict] = 22
methodNames[4537537][quickGet] = 1
methodNames[4537537][randomDouble] = 2
methodNames[4537537][rank] = 2
methodNames[4537537][reOpenDataSet] = 1
methodNames[4537537][reOpenData] = 1
methodNames[4537537][readIn] = 1
methodNames[4537537][readLine] = 1
methodNames[4537537][refresh] = 1
methodNames[4537537][resultString] = 5
methodNames[4537537][runJob] = 1
methodNames[4537537][runRMSE] = 1
methodNames[4537537][runSwap] = 2
methodNames[4537537][run] = 2
methodNames[4537537][sampleInfoStat] = 4
methodNames[4537537][saveModel] = 8
methodNames[4537537][setFilePath] = 1
methodNames[4537537][setForcibly] = 1
methodNames[4537537][setOutPrefix] = 1
methodNames[4537537][setParameters] = 1
methodNames[4537537][setProperties] = 7
methodNames[4537537][setSegment] = 1
methodNames[4537537][setVectorParameter] = 3
methodNames[4537537][setVectorStatus] = 1
methodNames[4537537][set] = 2
methodNames[4537537][short2outputbytes] = 1
methodNames[4537537][size] = 3
methodNames[4537537][sort] = 2
methodNames[4537537][splitData] = 1
methodNames[4537537][starsRatingDataConverter] = 1
methodNames[4537537][stop] = 1
methodNames[4537537][supportRandomAccess] = 1
methodNames[4537537][swap] = 1
methodNames[4537537][switchBuffer] = 1
methodNames[4537537][takeBack] = 1
methodNames[4537537][test2] = 1
methodNames[4537537][testClassifyReader] = 1
methodNames[4537537][testCrossValidation] = 1
methodNames[4537537][testDuration] = 1
methodNames[4537537][testFileBytes] = 1
methodNames[4537537][testFile] = 1
methodNames[4537537][testFormat1] = 1
methodNames[4537537][testIdReader] = 1
methodNames[4537537][testL1CV] = 1
methodNames[4537537][testL1TestAndTrain] = 1
methodNames[4537537][testL1Train] = 1
methodNames[4537537][testL2CV] = 1
methodNames[4537537][testL2TestAndTrain] = 1
methodNames[4537537][testL2Train] = 1
methodNames[4537537][testLine] = 1
methodNames[4537537][testMultiOpen] = 1
methodNames[4537537][testMultiReader] = 1
methodNames[4537537][testPoolSlowReader] = 1
methodNames[4537537][testRead] = 1
methodNames[4537537][testStorage] = 1
methodNames[4537537][testTrainAndTest] = 1
methodNames[4537537][testTrain] = 1
methodNames[4537537][testWrite] = 1
methodNames[4537537][test] = 2
methodNames[4537537][testlineReader] = 1
methodNames[4537537][toStat] = 1
methodNames[4537537][toString] = 10
methodNames[4537537][trainFile] = 1
methodNames[4537537][train] = 8
methodNames[4537537][updatePageranks] = 1
methodNames[4537537][updateWeights] = 1
methodNames[4537537][writeOut] = 2
methodNames[4537537][write] = 3
methodNames[4537625][<init>] = 1
methodNames[4537625][addDirtyListener] = 1
methodNames[4537625][createBrowserFunctions] = 1
methodNames[4537625][dispose] = 1
methodNames[4537625][getHostUrl] = 1
methodNames[4537625][getText] = 1
methodNames[4537625][isDirty] = 1
methodNames[4537625][notifyDirty] = 1
methodNames[4537625][notifyListeners] = 1
methodNames[4537625][setDirty] = 1
methodNames[4537625][setHostUrl] = 1
methodNames[4537625][setLayout] = 1
methodNames[4537625][setTextInternal] = 1
methodNames[4537625][setText] = 2
methodNames[4537656][<init>] = 1
methodNames[4537656][suite] = 1
methodNames[4537656][testApp] = 1
methodNames[4537680][<init>] = 67
methodNames[4537680][activeChannelMessageReceived] = 5
methodNames[4537680][addAutoChannel] = 3
methodNames[4537680][addAutoCommand] = 3
methodNames[4537680][addChannel] = 3
methodNames[4537680][addClient] = 3
methodNames[4537680][addMessage] = 3
methodNames[4537680][addNick] = 3
methodNames[4537680][addNickname] = 3
methodNames[4537680][addServer] = 3
methodNames[4537680][addTab] = 1
methodNames[4537680][animateToTab] = 1
methodNames[4537680][calcBounds] = 1
methodNames[4537680][calculateAllBounds] = 1
methodNames[4537680][channelJoined] = 9
methodNames[4537680][channelMessageReceived] = 4
methodNames[4537680][channelParted] = 9
methodNames[4537680][clipViewOnTheLeft] = 1
methodNames[4537680][clipViewOnTheRight] = 1
methodNames[4537680][compare] = 3
methodNames[4537680][connect] = 6
methodNames[4537680][containsAutoChannel] = 3
methodNames[4537680][countDigits] = 3
methodNames[4537680][createClient] = 3
methodNames[4537680][createError] = 3
methodNames[4537680][createFromParcel] = 3
methodNames[4537680][createQueryWindow] = 1
methodNames[4537680][createQuery] = 1
methodNames[4537680][deleteFromSharedPreferences] = 3
methodNames[4537680][deleteServer] = 2
methodNames[4537680][disconnect] = 3
methodNames[4537680][doInBackground] = 6
methodNames[4537680][expandAllServerGroups] = 2
methodNames[4537680][generateNickColour] = 3
methodNames[4537680][getAutoChannels] = 3
methodNames[4537680][getAutoCommands] = 3
methodNames[4537680][getChannelInfo] = 3
methodNames[4537680][getChannel] = 4
methodNames[4537680][getChannels] = 3
methodNames[4537680][getChildId] = 2
methodNames[4537680][getChildView] = 2
methodNames[4537680][getChild] = 2
methodNames[4537680][getChildrenCount] = 2
methodNames[4537680][getClient] = 9
methodNames[4537680][getClipPadding] = 1
methodNames[4537680][getContent] = 8
methodNames[4537680][getCount] = 4
methodNames[4537680][getCurrentChannel] = 4
methodNames[4537680][getEmbeddedYoutube] = 8
methodNames[4537680][getFadeDelay] = 1
methodNames[4537680][getFadeLength] = 1
methodNames[4537680][getFades] = 1
methodNames[4537680][getFillColor] = 1
methodNames[4537680][getFooterColor] = 1
methodNames[4537680][getFooterIndicatorHeight] = 1
methodNames[4537680][getFooterIndicatorPadding] = 1
methodNames[4537680][getFooterIndicatorStyle] = 1
methodNames[4537680][getFooterLineHeight] = 1
methodNames[4537680][getFragment] = 1
methodNames[4537680][getGroupCount] = 2
methodNames[4537680][getGroupId] = 2
methodNames[4537680][getGroupView] = 2
methodNames[4537680][getGroup] = 2
methodNames[4537680][getHost] = 3
methodNames[4537680][getHostname] = 3
methodNames[4537680][getIndex] = 1
methodNames[4537680][getInt] = 3
methodNames[4537680][getItem] = 1
methodNames[4537680][getMessages] = 3
methodNames[4537680][getName] = 9
methodNames[4537680][getNickColour] = 3
methodNames[4537680][getNickname] = 8
methodNames[4537680][getNicknames] = 3
methodNames[4537680][getOrientation] = 1
methodNames[4537680][getPageColor] = 1
methodNames[4537680][getPageTitle] = 1
methodNames[4537680][getPassword] = 3
methodNames[4537680][getPort] = 3
methodNames[4537680][getPrefix] = 2
methodNames[4537680][getRadius] = 1
methodNames[4537680][getRealname] = 6
methodNames[4537680][getSelectedColor] = 2
methodNames[4537680][getServerInfo] = 3
methodNames[4537680][getServerPreferences] = 3
methodNames[4537680][getServer] = 9
methodNames[4537680][getServers] = 3
methodNames[4537680][getService] = 3
methodNames[4537680][getStrokeColor] = 1
methodNames[4537680][getStrokeWidth] = 1
methodNames[4537680][getTextColor] = 1
methodNames[4537680][getTextSize] = 1
methodNames[4537680][getTime] = 8
methodNames[4537680][getTitlePadding] = 1
methodNames[4537680][getTitle] = 1
methodNames[4537680][getTopPadding] = 1
methodNames[4537680][getTypeface] = 1
methodNames[4537680][getUnreadMessageCount] = 3
methodNames[4537680][getUsername] = 3
methodNames[4537680][getView] = 3
methodNames[4537680][hasStableIds] = 2
methodNames[4537680][hideChannelList] = 2
methodNames[4537680][inactiveChannelMessageReceived] = 5
methodNames[4537680][incrementUnreadMessages] = 3
methodNames[4537680][interpret] = 3
methodNames[4537680][isActive] = 6
methodNames[4537680][isAppActive] = 6
methodNames[4537680][isAutoConnected] = 6
methodNames[4537680][isCentered] = 1
methodNames[4537680][isChannelNotificationType] = 16
methodNames[4537680][isChildSelectable] = 2
methodNames[4537680][isCommand] = 3
methodNames[4537680][isHighlighted] = 16
methodNames[4537680][isLogged] = 6
methodNames[4537680][isSSL] = 6
methodNames[4537680][isSelectedBold] = 1
methodNames[4537680][isSnap] = 1
methodNames[4537680][joinChannel] = 6
methodNames[4537680][loadFromPreferences] = 3
methodNames[4537680][loadFromSharedPreferences] = 3
methodNames[4537680][loadPreferences] = 3
methodNames[4537680][logMessage] = 3
methodNames[4537680][looksLikeChannel] = 3
methodNames[4537680][measureLong] = 1
methodNames[4537680][measureShort] = 1
methodNames[4537680][messageRecieved] = 1
methodNames[4537680][networkQuit] = 9
methodNames[4537680][newArray] = 3
methodNames[4537680][newInstance] = 1
methodNames[4537680][nickChanged] = 9
methodNames[4537680][notifyAdapterChanged] = 1
methodNames[4537680][notifyDataSetChanged] = 5
methodNames[4537680][onActionItemClicked] = 2
methodNames[4537680][onActivityCreated] = 1
methodNames[4537680][onAttachedToWindow] = 1
methodNames[4537680][onBind] = 3
methodNames[4537680][onCenterItemClick] = 1
methodNames[4537680][onChildClick] = 2
methodNames[4537680][onClick] = 4
methodNames[4537680][onConnect] = 3
methodNames[4537680][onContextItemSelected] = 2
methodNames[4537680][onCreateActionMode] = 2
methodNames[4537680][onCreateContextMenu] = 2
methodNames[4537680][onCreateOptionsMenu] = 2
methodNames[4537680][onCreateView] = 1
methodNames[4537680][onCreate] = 15
methodNames[4537680][onDestroyActionMode] = 2
methodNames[4537680][onDestroy] = 5
methodNames[4537680][onDetachedFromWindow] = 1
methodNames[4537680][onDisconnect] = 3
methodNames[4537680][onDraw] = 3
methodNames[4537680][onEditorAction] = 3
methodNames[4537680][onGroupClick] = 2
methodNames[4537680][onJoin] = 3
methodNames[4537680][onKeyDown] = 2
methodNames[4537680][onMeasure] = 4
methodNames[4537680][onMessage] = 3
methodNames[4537680][onMotd] = 3
methodNames[4537680][onNewIntent] = 2
methodNames[4537680][onNickChange] = 3
methodNames[4537680][onNotice] = 3
methodNames[4537680][onOptionsItemSelected] = 5
methodNames[4537680][onPageScrollStateChanged] = 4
methodNames[4537680][onPageScrolled] = 4
methodNames[4537680][onPageSelected] = 4
methodNames[4537680][onPart] = 3
methodNames[4537680][onPause] = 3
methodNames[4537680][onPostExecute] = 6
methodNames[4537680][onPrepareActionMode] = 2
methodNames[4537680][onPrivateMessage] = 1
methodNames[4537680][onQuit] = 3
methodNames[4537680][onRestoreInstanceState] = 3
methodNames[4537680][onResume] = 3
methodNames[4537680][onSaveInstanceState] = 3
methodNames[4537680][onServerResponse] = 3
methodNames[4537680][onServiceConnected] = 3
methodNames[4537680][onServiceDisconnected] = 3
methodNames[4537680][onStartCommand] = 3
methodNames[4537680][onStart] = 3
methodNames[4537680][onTabReselected] = 1
methodNames[4537680][onTopic] = 3
methodNames[4537680][onTouchEvent] = 3
methodNames[4537680][onUnbind] = 3
methodNames[4537680][parseIRCColour] = 3
methodNames[4537680][parseSpecial] = 3
methodNames[4537680][parseToHTML] = 3
methodNames[4537680][partChannel] = 9
methodNames[4537680][queryMessageReceived] = 4
methodNames[4537680][removeAutoChannel] = 3
methodNames[4537680][removeAutoCommand] = 3
methodNames[4537680][removeChannel] = 6
methodNames[4537680][removeClient] = 3
methodNames[4537680][removeMessage] = 3
methodNames[4537680][removeNickname] = 3
methodNames[4537680][renameServer] = 3
methodNames[4537680][run] = 1
methodNames[4537680][saveToSharedPreferences] = 3
methodNames[4537680][sendMessage] = 6
methodNames[4537680][sendRawCommand] = 3
methodNames[4537680][serverConnected] = 9
methodNames[4537680][serverDisconnected] = 9
methodNames[4537680][serverNameExists] = 3
methodNames[4537680][serviceConnected] = 2
methodNames[4537680][serviceStart] = 3
methodNames[4537680][setAutoChannels] = 3
methodNames[4537680][setAutoCommands] = 3
methodNames[4537680][setCentered] = 1
methodNames[4537680][setChannelInfo] = 3
methodNames[4537680][setChannels] = 3
methodNames[4537680][setClient] = 3
methodNames[4537680][setClipPadding] = 1
methodNames[4537680][setContent] = 8
methodNames[4537680][setCurrentChannelView] = 2
methodNames[4537680][setCurrentItem] = 5
methodNames[4537680][setEmbeddedYoutube] = 8
methodNames[4537680][setFadeDelay] = 1
methodNames[4537680][setFadeLength] = 1
methodNames[4537680][setFades] = 1
methodNames[4537680][setFillColor] = 1
methodNames[4537680][setFooterColor] = 1
methodNames[4537680][setFooterIndicatorHeight] = 1
methodNames[4537680][setFooterIndicatorPadding] = 1
methodNames[4537680][setFooterIndicatorStyle] = 1
methodNames[4537680][setFooterLineHeight] = 1
methodNames[4537680][setFragment] = 1
methodNames[4537680][setHost] = 6
methodNames[4537680][setHostname] = 3
methodNames[4537680][setMessages] = 6
methodNames[4537680][setName] = 9
methodNames[4537680][setNickColour] = 3
methodNames[4537680][setNickname] = 8
methodNames[4537680][setNicknames] = 3
methodNames[4537680][setNicks] = 3
methodNames[4537680][setOnCenterItemClickListener] = 1
methodNames[4537680][setOnPageChangeListener] = 5
methodNames[4537680][setOnTabReselectedListener] = 1
methodNames[4537680][setOrientation] = 1
methodNames[4537680][setPageColor] = 1
methodNames[4537680][setPassword] = 3
methodNames[4537680][setPort] = 3
methodNames[4537680][setRadius] = 1
methodNames[4537680][setRealname] = 6
methodNames[4537680][setSelectedBold] = 1
methodNames[4537680][setSelectedColor] = 2
methodNames[4537680][setServerInfo] = 3
methodNames[4537680][setServerPreferences] = 3
methodNames[4537680][setServer] = 3
methodNames[4537680][setSnap] = 1
methodNames[4537680][setStrokeColor] = 1
methodNames[4537680][setStrokeWidth] = 1
methodNames[4537680][setTextColor] = 1
methodNames[4537680][setTextSize] = 1
methodNames[4537680][setTime] = 8
methodNames[4537680][setTitlePadding] = 1
methodNames[4537680][setTopPadding] = 1
methodNames[4537680][setTypeface] = 1
methodNames[4537680][setUserVisibleHint] = 1
methodNames[4537680][setUsername] = 3
methodNames[4537680][setViewPager] = 10
methodNames[4537680][showMentionNotification] = 3
methodNames[4537680][showServerEditDialog] = 2
methodNames[4537680][statusMessageReceived] = 9
methodNames[4537680][stopService] = 3
methodNames[4537680][updateCurrentFragment] = 1
methodNames[4537680][updateFragment] = 1
methodNames[4537680][updateNotificationWithNoNew] = 1
methodNames[4537680][updateNotification] = 3
methodNames[4537680][verifySSL] = 6
methodNames[4537680][writeToParcel] = 3
methodNames[4537718][<init>] = 5
methodNames[4537718][clone] = 1
methodNames[4537718][createViewerEditor] = 1
methodNames[4537718][doClearAll] = 1
methodNames[4537718][doClear] = 1
methodNames[4537718][doDeselectAll] = 1
methodNames[4537718][doGetColumnCount] = 1
methodNames[4537718][doGetColumn] = 1
methodNames[4537718][doGetItemCount] = 1
methodNames[4537718][doGetItem] = 1
methodNames[4537718][doGetItems] = 1
methodNames[4537718][doGetSelectionIndices] = 1
methodNames[4537718][doGetSelection] = 1
methodNames[4537718][doIndexOf] = 1
methodNames[4537718][doRemoveAll] = 1
methodNames[4537718][doRemove] = 2
methodNames[4537718][doResetItem] = 1
methodNames[4537718][doSelect] = 1
methodNames[4537718][doSetItemCount] = 1
methodNames[4537718][doSetSelection] = 2
methodNames[4537718][doShowItem] = 1
methodNames[4537718][doShowSelection] = 1
methodNames[4537718][getBackground] = 1
methodNames[4537718][getBounds] = 2
methodNames[4537718][getClassLoader] = 1
methodNames[4537718][getColumnCount] = 1
methodNames[4537718][getCombo] = 1
methodNames[4537718][getControl] = 2
methodNames[4537718][getCreationIndex] = 1
methodNames[4537718][getElement] = 1
methodNames[4537718][getFont] = 1
methodNames[4537718][getForeground] = 1
methodNames[4537718][getImageBounds] = 1
methodNames[4537718][getImage] = 1
methodNames[4537718][getItemAt] = 1
methodNames[4537718][getItem] = 1
methodNames[4537718][getNeighbor] = 1
methodNames[4537718][getRowAbove] = 1
methodNames[4537718][getRowBelow] = 1
methodNames[4537718][getTableCombo] = 1
methodNames[4537718][getTextBounds] = 1
methodNames[4537718][getText] = 1
methodNames[4537718][getTreePath] = 1
methodNames[4537718][getViewerRowFromItem] = 1
methodNames[4537718][getVisualIndex] = 1
methodNames[4537718][handleLabelProviderChanged] = 1
methodNames[4537718][hasColumns] = 1
methodNames[4537718][internalCreateNewRowPart] = 1
methodNames[4537718][isValidOrderIndex] = 1
methodNames[4537718][scrollCellIntoView] = 1
methodNames[4537718][setBackground] = 1
methodNames[4537718][setFont] = 1
methodNames[4537718][setForeground] = 1
methodNames[4537718][setImage] = 1
methodNames[4537718][setItem] = 1
methodNames[4537718][setText] = 1
methodNames[4537718][start] = 1
methodNames[4537718][stop] = 1
methodNames[4537722][<clinit>] = 5
methodNames[4537722][<init>] = 99
methodNames[4537722][addDataIntoDB] = 1
methodNames[4537722][addElementCollection] = 1
methodNames[4537722][afterPropertiesSet] = 1
methodNames[4537722][authenticate] = 1
methodNames[4537722][callAndUnmarshall] = 1
methodNames[4537722][call] = 2
methodNames[4537722][checkUserBeanSettingsBeanMapping] = 1
methodNames[4537722][convertInput] = 2
methodNames[4537722][createAddressDetailsType] = 1
methodNames[4537722][createAddressDetails] = 1
methodNames[4537722][createBoundedByType] = 1
methodNames[4537722][createBoundedBy] = 1
methodNames[4537722][createBuildingGeoObject] = 1
methodNames[4537722][createCountryType] = 1
methodNames[4537722][createEnvelopeType] = 1
methodNames[4537722][createFeatureMemberType] = 1
methodNames[4537722][createFeatureMember] = 1
methodNames[4537722][createGeoObjectCollectionType] = 1
methodNames[4537722][createGeoObjectType] = 1
methodNames[4537722][createGeoObject] = 1
methodNames[4537722][createGeocoderMetaDataType] = 1
methodNames[4537722][createGeocoderMetaData] = 1
methodNames[4537722][createGeocoderResponseMetaDataType] = 1
methodNames[4537722][createGeocoderResponseMetaData] = 1
methodNames[4537722][createGoBidBean] = 1
methodNames[4537722][createLocalityType] = 1
methodNames[4537722][createMetaDataPropertyType] = 1
methodNames[4537722][createMetaDataProperty] = 1
methodNames[4537722][createName] = 1
methodNames[4537722][createPointType] = 1
methodNames[4537722][createPoint] = 1
methodNames[4537722][createPremiseType] = 1
methodNames[4537722][createSearchInGeoObjectBean] = 1
methodNames[4537722][createStreetGeoObject] = 1
methodNames[4537722][createThoroughfareType] = 1
methodNames[4537722][createYmapsType] = 1
methodNames[4537722][createYmaps] = 1
methodNames[4537722][create_save] = 2
methodNames[4537722][dataSource] = 1
methodNames[4537722][dbUnitDataExporter] = 1
methodNames[4537722][dbUnitDataLoader] = 1
methodNames[4537722][deleteById] = 1
methodNames[4537722][delete] = 1
methodNames[4537722][detach] = 1
methodNames[4537722][doAjaxRefreshAfterLocaleUpdated] = 1
methodNames[4537722][doLoadTestData] = 1
methodNames[4537722][doReadGeoObjectsAndPersist2DB] = 1
methodNames[4537722][driverBot] = 1
methodNames[4537722][entityManagerFactoryBean] = 1
methodNames[4537722][equals] = 2
methodNames[4537722][exceptionTranslation] = 1
methodNames[4537722][execute] = 1
methodNames[4537722][exportTables] = 3
methodNames[4537722][export] = 2
